{"learner":{"attributes":{"scikit_learn":"{\"_estimator_type\": \"classifier\"}"},"feature_names":[],"feature_types":[],"gradient_booster":{"model":{"cats":{"enc":[],"feature_segments":[],"sorted_idx":[]},"gbtree_model_param":{"num_parallel_tree":"1","num_trees":"300"},"iteration_indptr":[0,1,2,3,4,5,6,7,8,9,10,11,12,13,14,15,16,17,18,19,20,21,22,23,24,25,26,27,28,29,30,31,32,33,34,35,36,37,38,39,40,41,42,43,44,45,46,47,48,49,50,51,52,53,54,55,56,57,58,59,60,61,62,63,64,65,66,67,68,69,70,71,72,73,74,75,76,77,78,79,80,81,82,83,84,85,86,87,88,89,90,91,92,93,94,95,96,97,98,99,100,101,102,103,104,105,106,107,108,109,110,111,112,113,114,115,116,117,118,119,120,121,122,123,124,125,126,127,128,129,130,131,132,133,134,135,136,137,138,139,140,141,142,143,144,145,146,147,148,149,150,151,152,153,154,155,156,157,158,159,160,161,162,163,164,165,166,167,168,169,170,171,172,173,174,175,176,177,178,179,180,181,182,183,184,185,186,187,188,189,190,191,192,193,194,195,196,197,198,199,200,201,202,203,204,205,206,207,208,209,210,211,212,213,214,215,216,217,218,219,220,221,222,223,224,225,226,227,228,229,230,231,232,233,234,235,236,237,238,239,240,241,242,243,244,245,246,247,248,249,250,251,252,253,254,255,256,257,258,259,260,261,262,263,264,265,266,267,268,269,270,271,272,273,274,275,276,277,278,279,280,281,282,283,284,285,286,287,288,289,290,291,292,293,294,295,296,297,298,299,300],"tree_info":[0,0,0,0,0,0,0,0,0,0,0,0,0,0,0,0,0,0,0,0,0,0,0,0,0,0,0,0,0,0,0,0,0,0,0,0,0,0,0,0,0,0,0,0,0,0,0,0,0,0,0,0,0,0,0,0,0,0,0,0,0,0,0,0,0,0,0,0,0,0,0,0,0,0,0,0,0,0,0,0,0,0,0,0,0,0,0,0,0,0,0,0,0,0,0,0,0,0,0,0,0,0,0,0,0,0,0,0,0,0,0,0,0,0,0,0,0,0,0,0,0,0,0,0,0,0,0,0,0,0,0,0,0,0,0,0,0,0,0,0,0,0,0,0,0,0,0,0,0,0,0,0,0,0,0,0,0,0,0,0,0,0,0,0,0,0,0,0,0,0,0,0,0,0,0,0,0,0,0,0,0,0,0,0,0,0,0,0,0,0,0,0,0,0,0,0,0,0,0,0,0,0,0,0,0,0,0,0,0,0,0,0,0,0,0,0,0,0,0,0,0,0,0,0,0,0,0,0,0,0,0,0,0,0,0,0,0,0,0,0,0,0,0,0,0,0,0,0,0,0,0,0,0,0,0,0,0,0,0,0,0,0,0,0,0,0,0,0,0,0,0,0,0,0,0,0,0,0,0,0,0,0,0,0,0,0,0,0,0,0,0,0,0,0,0,0,0,0,0,0],"trees":[{"base_weights":[-1.3392652E-2,1.9987375E-1,-1.9889332E0,-1.5636616E0,-1.993529E-1,-1.8545291E-1,2.2732775E-1,1.2589411E-1,-1.1111112E-1],"categories":[],"categories_nodes":[],"categories_segments":[],"categories_sizes":[],"default_left":[0,0,0,0,0,0,0,0,0],"id":0,"left_children":[1,-1,3,5,-1,-1,7,-1,-1],"loss_changes":[1.2710582E4,0E0,3.564453E-2,1.1823723E1,0E0,0E0,6.8511896E0,0E0,0E0],"parents":[2147483647,0,0,2,2,3,3,6,6],"right_children":[2,-1,4,6,-1,-1,8,-1,-1],"split_conditions":[1E0,1.9987375E-1,2E0,3.721E-1,-1.993529E-1,-1.8545291E-1,3.9316E0,1.2589411E-1,-1.1111112E-1],"split_indices":[1,0,9,46,0,0,39,0,0],"split_type":[0,0,0,0,0,0,0,0,0],"sum_hessian":[3.1955945E3,1.5831306E3,1.612464E3,2.08876E1,1.5915764E3,1.793876E1,2.9488406E0,1.6988405E0,1.25E0],"tree_param":{"num_deleted":"0","num_feature":"74","num_nodes":"9","size_leaf_vector":"1"}},{"base_weights":[1.054691E-3,1.8176852E-1,-1.8081702E0,-9.825278E-1,-1.8100034E-1,3.111784E-2,-1.4125197E-1],"categories":[],"categories_nodes":[],"categories_segments":[],"categories_sizes":[],"default_left":[0,0,0,0,0,0,0],"id":1,"left_children":[1,-1,3,5,-1,-1,-1],"loss_changes":[1.0429438E4,0E0,6.279297E-1,3.615675E0,0E0,0E0,0E0],"parents":[2147483647,0,0,2,2,3,3],"right_children":[2,-1,4,6,-1,-1,-1],"split_conditions":[1E0,1.8176852E-1,1.19E2,3.6989E0,-1.8100034E-1,3.111784E-2,-1.4125197E-1],"split_indices":[1,0,6,39,0,0,0],"split_type":[0,0,0,0,0,0,0],"sum_hessian":[3.1712317E3,1.582375E3,1.5888567E3,4.7095556E0,1.5841471E3,1.2437701E0,3.4657855E0],"tree_param":{"num_deleted":"0","num_feature":"74","num_nodes":"7","size_leaf_vector":"1"}},{"base_weights":[-4.371883E-3,1.68164E-1,-1.670596E0,-1.6787133E-1,-1.4053438E0,1.6474837E-1,-1.62371E-1],"categories":[],"categories_nodes":[],"categories_segments":[],"categories_sizes":[],"default_left":[0,0,0,0,0,0,0],"id":2,"left_children":[1,-1,3,-1,5,-1,-1],"loss_changes":[8.651757E3,0E0,9.760742E-1,0E0,3.7429337E1,0E0,0E0],"parents":[2147483647,0,0,2,2,4,4],"right_children":[2,-1,4,-1,6,-1,-1],"split_conditions":[1E0,1.68164E-1,3.81E-1,-1.6787133E-1,2E0,1.6474837E-1,-1.62371E-1],"split_indices":[1,0,46,0,23,0,0],"split_type":[0,0,0,0,0,0,0],"sum_hessian":[3.0777131E3,1.5297683E3,1.5479447E3,1.4968108E3,5.113399E1,2.9765334E0,4.815746E1],"tree_param":{"num_deleted":"0","num_feature":"74","num_nodes":"7","size_leaf_vector":"1"}},{"base_weights":[-4.0164203E-3,1.5759948E-1,-1.5654083E0,-1.171533E0,-1.5697178E-1,-1.4059929E0,1.5000694E-1,-6.232084E-1,-1.4801745E-1,1.1052679E-1,-7.511423E-2,-7.628245E-3,-8.534243E-2],"categories":[],"categories_nodes":[],"categories_segments":[],"categories_sizes":[],"default_left":[0,0,0,0,0,0,0,0,0,0,0,0,0],"id":3,"left_children":[1,-1,3,5,-1,7,9,11,-1,-1,-1,-1,-1],"loss_changes":[7.3367373E3,0E0,7.001953E-1,6.448414E0,0E0,7.596207E-2,4.219253E0,3.3977592E-1,0E0,0E0,0E0,0E0,0E0],"parents":[2147483647,0,0,2,2,3,3,5,5,6,6,7,7],"right_children":[2,-1,4,6,-1,8,10,12,-1,-1,-1,-1,-1],"split_conditions":[1E0,1.5759948E-1,2E0,3.721E-1,-1.5697178E-1,1.2281E0,3.8638E0,2E0,-1.4801745E-1,1.1052679E-1,-7.511423E-2,-7.628245E-3,-8.534243E-2],"split_indices":[1,0,9,46,0,14,39,1,0,0,0,0,0],"split_type":[0,0,0,0,0,0,0,0,0,0,0,0,0],"sum_hessian":[2.971931E3,1.4771533E3,1.4947775E3,1.9130838E1,1.4756466E3,1.6193905E1,2.9369323E0,2.2155828E0,1.3978322E1,1.315709E0,1.6212233E0,1.0507226E0,1.1648602E0],"tree_param":{"num_deleted":"0","num_feature":"74","num_nodes":"13","size_leaf_vector":"1"}},{"base_weights":[-2.2430154E-3,1.49186E-1,-1.4816695E0,-7.525176E-1,-1.4834802E-1,-1.1557239E-1,2.6038209E-2],"categories":[],"categories_nodes":[],"categories_segments":[],"categories_sizes":[],"default_left":[0,0,0,0,0,0,0],"id":4,"left_children":[1,-1,3,5,-1,-1,-1],"loss_changes":[6.249484E3,0E0,7.595215E-1,2.5670094E0,0E0,0E0,0E0],"parents":[2147483647,0,0,2,2,3,3],"right_children":[2,-1,4,6,-1,-1,-1],"split_conditions":[1E0,1.49186E-1,1.19E2,2.24E-2,-1.4834802E-1,-1.1557239E-1,2.6038209E-2],"split_indices":[1,0,6,42,0,0,0],"split_type":[0,0,0,0,0,0,0],"sum_hessian":[2.825289E3,1.405668E3,1.4196211E3,4.5485735E0,1.4150725E3,3.152606E0,1.3959675E0],"tree_param":{"num_deleted":"0","num_feature":"74","num_nodes":"7","size_leaf_vector":"1"}},{"base_weights":[-4.7956645E-3,1.4235412E-1,-1.4114764E0,-1.4200254E-1,-1.1339692E0,1.6840687E-1,-1.3803612E-1],"categories":[],"categories_nodes":[],"categories_segments":[],"categories_sizes":[],"default_left":[0,0,0,0,0,0,0],"id":5,"left_children":[1,-1,3,-1,5,-1,-1],"loss_changes":[5.4124194E3,0E0,1.609375E0,0E0,3.393438E1,0E0,0E0],"parents":[2147483647,0,0,2,2,4,4],"right_children":[2,-1,4,-1,6,-1,-1],"split_conditions":[1E0,1.4235412E-1,3.81E-1,-1.4200254E-1,2E0,1.6840687E-1,-1.3803612E-1],"split_indices":[1,0,46,0,23,0,0],"split_type":[0,0,0,0,0,0,0],"sum_hessian":[2.6918E3,1.335613E3,1.3561869E3,1.3116621E3,4.4524757E1,3.1108136E0,4.1413944E1],"tree_param":{"num_deleted":"0","num_feature":"74","num_nodes":"7","size_leaf_vector":"1"}},{"base_weights":[2.758955E-3,1.3671736E-1,-1.3555396E0,-1.0002995E0,-1.359395E-1,-1.195284E0,3.5177656E-2,-3.5773285E-2,-1.2778875E-1],"categories":[],"categories_nodes":[],"categories_segments":[],"categories_sizes":[],"default_left":[0,0,0,0,0,0,0,0,0],"id":6,"left_children":[1,-1,3,5,-1,7,-1,-1,-1],"loss_changes":[4.6472183E3,0E0,3.6108398E-1,4.975195E0,0E0,6.032238E-1,0E0,0E0,0E0],"parents":[2147483647,0,0,2,2,3,3,5,5],"right_children":[2,-1,4,6,-1,8,-1,-1,-1],"split_conditions":[1E0,1.3671736E-1,2E0,4.247E-1,-1.359395E-1,1.2281E0,3.5177656E-2,-3.5773285E-2,-1.2778875E-1],"split_indices":[1,0,9,46,0,14,0,0,0],"split_type":[0,0,0,0,0,0,0,0,0],"sum_hessian":[2.5055608E3,1.2499629E3,1.2555978E3,1.627669E1,1.2393212E3,1.4326598E1,1.9500921E0,1.7646632E0,1.2561934E1],"tree_param":{"num_deleted":"0","num_feature":"74","num_nodes":"9","size_leaf_vector":"1"}},{"base_weights":[9.999919E-4,1.3200855E-1,-1.3066678E0,-1.3155223E-1,-1.0205371E0,1.6400264E-1,-1.2585844E0,-4.51643E-2,-1.2883836E-1],"categories":[],"categories_nodes":[],"categories_segments":[],"categories_sizes":[],"default_left":[0,0,0,0,0,0,0,0,0],"id":7,"left_children":[1,-1,3,-1,5,-1,7,-1,-1],"loss_changes":[4.074674E3,0E0,1.6628418E0,0E0,2.7439999E1,0E0,3.1605148E-1,0E0,0E0],"parents":[2147483647,0,0,2,2,4,4,6,6],"right_children":[2,-1,4,-1,6,-1,8,-1,-1],"split_conditions":[1E0,1.3200855E-1,3.81E-1,-1.3155223E-1,2E0,1.6400264E-1,2E0,-4.51643E-2,-1.2883836E-1],"split_indices":[63,0,46,0,23,0,9,0,0],"split_type":[0,0,0,0,0,0,0,0,0],"sum_hessian":[2.3602317E3,1.1749814E3,1.1852501E3,1.1461833E3,3.9066776E1,2.7246714E0,3.6342106E1,1.8696452E0,3.4472458E1],"tree_param":{"num_deleted":"0","num_feature":"74","num_nodes":"9","size_leaf_vector":"1"}},{"base_weights":[2.4104414E-3,1.2803511E-1,-1.2682381E0,-8.0351704E-1,-1.2740888E-1,3.9454302E-1,-1.1089796E0,-5.0920267E-2,1.1175259E-1,-1.18684664E-1,-2.745138E-2],"categories":[],"categories_nodes":[],"categories_segments":[],"categories_sizes":[],"default_left":[0,0,0,0,0,0,0,0,0,0,0],"id":8,"left_children":[1,-1,3,5,-1,7,9,-1,-1,-1,-1],"loss_changes":[3.5685918E3,0E0,1.9724121E0,6.4423532E0,0E0,3.2291183E0,5.408039E-1,0E0,0E0,0E0,0E0],"parents":[2147483647,0,0,2,2,3,3,5,5,6,6],"right_children":[2,-1,4,6,-1,8,10,-1,-1,-1,-1],"split_conditions":[1E0,1.2803511E-1,2E0,2E0,-1.2740888E-1,8.3E-3,4.476E-1,-5.0920267E-2,1.1175259E-1,-1.18684664E-1,-2.745138E-2],"split_indices":[1,0,9,23,0,46,46,0,0,0,0],"split_type":[0,0,0,0,0,0,0,0,0,0,0],"sum_hessian":[2.1956611E3,1.0946855E3,1.1009755E3,1.5408273E1,1.0855673E3,3.071168E0,1.2337105E1,1.4963664E0,1.5748014E0,1.08979E1,1.4392054E0],"tree_param":{"num_deleted":"0","num_feature":"74","num_nodes":"11","size_leaf_vector":"1"}},{"base_weights":[-2.2630354E-3,1.24642305E-1,-1.2303346E0,-6.38421E-1,-1.2377781E-1,2.2672634E-1,-1.0770236E0,8.030703E-1,-6.880625E-2,-3.2500792E-2,-1.1282887E-1,1.1697399E-2,1.16831854E-1],"categories":[],"categories_nodes":[],"categories_segments":[],"categories_sizes":[],"default_left":[0,0,0,0,0,0,0,0,0,0,0,0,0],"id":9,"left_children":[1,-1,3,5,-1,7,9,11,-1,-1,-1,-1,-1],"loss_changes":[3.1244988E3,0E0,3.7357178E0,5.868673E0,0E0,3.6171708E0,1.9199371E-2,8.725853E-1,0E0,0E0,0E0,0E0,0E0],"parents":[2147483647,0,0,2,2,3,3,5,5,6,6,7,7],"right_children":[2,-1,4,6,-1,8,10,12,-1,-1,-1,-1,-1],"split_conditions":[1E0,1.24642305E-1,2E0,4.5E1,-1.2377781E-1,2.74E2,9.048E-1,1E0,-6.880625E-2,-3.2500792E-2,-1.1282887E-1,1.1697399E-2,1.16831854E-1],"split_indices":[63,0,9,32,0,0,5,49,0,0,0,0,0],"split_type":[0,0,0,0,0,0,0,0,0,0,0,0,0],"sum_hessian":[2.0355272E3,1.0092852E3,1.0262421E3,1.38224945E1,1.01241956E3,4.8126245E0,9.009871E0,3.027399E0,1.7852256E0,1.0434268E0,7.9664435E0,1.5104223E0,1.5169766E0],"tree_param":{"num_deleted":"0","num_feature":"74","num_nodes":"13","size_leaf_vector":"1"}},{"base_weights":[-1.273272E-3,1.21738136E-1,-1.2009962E0,-1.2108388E0,-8.8869363E-1,-5.618093E-1,-1.2123461E-1,1.4383249E-1,-1.1223804E0,-8.249851E-2,8.572756E-3,-2.9892236E-1,-1.1840867E-1,3.0010685E-2,-7.232276E-2],"categories":[],"categories_nodes":[],"categories_segments":[],"categories_sizes":[],"default_left":[0,0,0,0,0,0,0,0,0,0,0,0,0,0,0],"id":10,"left_children":[1,-1,3,5,7,9,-1,-1,11,-1,-1,13,-1,-1,-1],"loss_changes":[2.747872E3,0E0,1.8352051E0,2.1435547E-1,1.9394058E1,7.49761E-1,0E0,0E0,1.18433E0,0E0,0E0,1.0934609E0,0E0,0E0,0E0],"parents":[2147483647,0,0,2,2,3,3,4,4,5,5,8,8,11,11],"right_children":[2,-1,4,6,8,10,-1,-1,12,-1,-1,14,-1,-1,-1],"split_conditions":[1E0,1.21738136E-1,3.81E-1,1.19E2,2E0,1.0857E0,-1.2123461E-1,1.4383249E-1,1E1,-8.249851E-2,8.572756E-3,3.9511E0,-1.1840867E-1,3.0010685E-2,-7.232276E-2],"split_indices":[1,0,46,6,23,5,0,0,0,0,0,39,0,0,0],"split_type":[0,0,0,0,0,0,0,0,0,0,0,0,0,0,0],"sum_hessian":[1.8774679E3,9.31378E2,9.4608997E2,9.143942E2,3.1695723E1,2.984583E0,9.1140967E2,2.422079E0,2.9273643E1,1.927259E0,1.057324E0,2.4481297E0,2.6825514E1,1.1364346E0,1.3116951E0],"tree_param":{"num_deleted":"0","num_feature":"74","num_nodes":"15","size_leaf_vector":"1"}},{"base_weights":[2.3257108E-3,1.1922107E-1,-1.1744097E0,-1.1867303E0,-8.171762E-1,-1.1876156E-1,-4.461716E-2,1.5125792E-1,-1.1166813E0,-1.1585076E-1,-5.40189E-1,3.390443E-3,-7.688427E-2],"categories":[],"categories_nodes":[],"categories_segments":[],"categories_sizes":[],"default_left":[0,0,0,0,0,0,0,0,0,0,0,0,0],"id":11,"left_children":[1,-1,3,5,7,-1,-1,-1,9,-1,11,-1,-1],"loss_changes":[2.4253872E3,0E0,2.8632812E0,2.0629883E-2,2.41898E1,0E0,0E0,0E0,7.7034E-2,0E0,5.308472E-1,0E0,0E0],"parents":[2147483647,0,0,2,2,3,3,4,4,8,8,10,10],"right_children":[2,-1,4,6,8,-1,-1,-1,10,-1,12,-1,-1],"split_conditions":[1E0,1.1922107E-1,3.81E-1,4.27E2,2E0,-1.1876156E-1,-4.461716E-2,1.5125792E-1,1.25E-1,-1.1585076E-1,9.15E2,3.390443E-3,-7.688427E-2],"split_indices":[1,0,46,13,23,0,0,0,48,0,0,0,0],"split_type":[0,0,0,0,0,0,0,0,0,0,0,0,0],"sum_hessian":[1.7301969E3,8.602852E2,8.6991174E2,8.386653E2,3.1246473E1,8.3706085E2,1.6044157E0,3.0979824E0,2.814849E1,2.5303093E1,2.8453984E0,1.0530837E0,1.7923146E0],"tree_param":{"num_deleted":"0","num_feature":"74","num_nodes":"13","size_leaf_vector":"1"}},{"base_weights":[9.482854E-4,1.17035165E-1,-1.1527642E0,-6.1448234E-1,-1.1602105E0,3.975016E-1,-9.5412236E-1,-1.1611352E0,-3.1388525E-2,9.952874E-2,-5.2264985E-2,-1.0537525E-1,-1.6455678E-2,-1.1637541E-1,-7.0500845E-1,3.560104E-2,-9.748544E-2],"categories":[],"categories_nodes":[],"categories_segments":[],"categories_sizes":[],"default_left":[0,0,0,0,0,0,0,0,0,0,0,0,0,0,0,0,0],"id":12,"left_children":[1,-1,3,5,7,9,11,13,-1,-1,-1,-1,-1,-1,15,-1,-1],"loss_changes":[2.168152E3,0E0,2.529419E0,4.9038734E0,2.590332E-1,2.7279916E0,6.2506104E-1,1.3000488E-1,0E0,0E0,0E0,0E0,0E0,0E0,2.3737285E0,0E0,0E0],"parents":[2147483647,0,0,2,2,3,3,4,4,5,5,6,6,7,7,14,14],"right_children":[2,-1,4,6,8,10,12,14,-1,-1,-1,-1,-1,-1,16,-1,-1],"split_conditions":[1E0,1.17035165E-1,2E0,1.2281E0,3E0,2.74E2,4.476E-1,1E0,-3.1388525E-2,9.952874E-2,-5.2264985E-2,-1.0537525E-1,-1.6455678E-2,-1.1637541E-1,7.5609E0,3.560104E-2,-9.748544E-2],"split_indices":[63,0,9,14,19,0,46,47,0,0,0,0,0,0,14,0,0],"split_type":[0,0,0,0,0,0,0,0,0,0,0,0,0,0,0,0,0],"sum_hessian":[1.6050443E3,7.9709454E2,8.079497E2,1.2164021E1,7.957857E2,3.0138013E0,9.15022E0,7.9454565E2,1.2400517E0,1.7774237E0,1.2363776E0,7.8278728E0,1.3223468E0,7.884671E2,6.078549E0,1.1677425E0,4.9108067E0],"tree_param":{"num_deleted":"0","num_feature":"74","num_nodes":"17","size_leaf_vector":"1"}},{"base_weights":[-6.3193184E-3,1.1512933E-1,-1.1320797E0,-1.1436307E0,-7.8403634E-1,-1.1446458E0,-3.8763914E-2,1.4318624E-1,-1.0634179E0,-1.1456396E-1,-3.8432535E-2,-1.3298409E-3,-1.1103423E-1],"categories":[],"categories_nodes":[],"categories_segments":[],"categories_sizes":[],"default_left":[0,0,0,0,0,0,0,0,0,0,0,0,0],"id":13,"left_children":[1,-1,3,5,7,9,-1,-1,11,-1,-1,-1,-1],"loss_changes":[1.9376101E3,0E0,2.133728E0,1.1444092E-1,1.848141E1,1.0821533E-1,0E0,0E0,1.2122192E0,0E0,0E0,0E0,0E0],"parents":[2147483647,0,0,2,2,3,3,4,4,5,5,8,8],"right_children":[2,-1,4,6,8,10,-1,-1,12,-1,-1,-1,-1],"split_conditions":[1E0,1.1512933E-1,3.81E-1,1.097E3,2E0,3E0,-3.8763914E-2,1.4318624E-1,2E0,-1.1456396E-1,-3.8432535E-2,-1.3298409E-3,-1.1103423E-1],"split_indices":[1,0,46,11,23,19,0,0,9,0,0,0,0],"split_type":[0,0,0,0,0,0,0,0,0,0,0,0,0],"sum_hessian":[1.4848156E3,7.320403E2,7.5277527E2,7.263819E2,2.6393396E1,7.2489453E2,1.4873664E0,2.4932463E0,2.390015E1,7.234422E2,1.4523076E0,1.0771881E0,2.2822962E1],"tree_param":{"num_deleted":"0","num_feature":"74","num_nodes":"13","size_leaf_vector":"1"}},{"base_weights":[5.6270994E-3,1.1345898E-1,-1.11443E0,-1.126992E0,-7.3173E-1,-1.1280878E-1,-3.421388E-2,1.228415E-1,-1.0329353E0,1.3316585E-3,-1.0871374E-1],"categories":[],"categories_nodes":[],"categories_segments":[],"categories_sizes":[],"default_left":[0,0,0,0,0,0,0,0,0,0,0],"id":14,"left_children":[1,-1,3,5,7,-1,-1,-1,9,-1,-1],"loss_changes":[1.715752E3,0E0,2.449829E0,1.796875E-1,1.5732778E1,0E0,0E0,0E0,1.2495079E0,0E0,0E0],"parents":[2147483647,0,0,2,2,3,3,4,4,8,8],"right_children":[2,-1,4,6,8,-1,-1,-1,10,-1,-1],"split_conditions":[1E0,1.1345898E-1,3.81E-1,4.27E2,1.2281E0,-1.1280878E-1,-3.421388E-2,1.228415E-1,2E0,1.3316585E-3,-1.0871374E-1],"split_indices":[1,0,46,13,14,0,0,0,9,0,0],"split_type":[0,0,0,0,0,0,0,0,0,0,0],"sum_hessian":[1.3548591E3,6.747406E2,6.801185E2,6.566203E2,2.3498228E1,6.5526807E2,1.352225E0,2.7198715E0,2.0778357E1,1.060577E0,1.971778E1],"tree_param":{"num_deleted":"0","num_feature":"74","num_nodes":"11","size_leaf_vector":"1"}},{"base_weights":[-8.017691E-3,1.1197791E-1,-1.0987172E0,-7.586407E-2,-1.102571E0,6.368109E-2,-6.6728875E-2,-1.1125785E0,-7.940688E-1,-1.1137606E0,-2.3501342E-2,1.16406225E-1,-1.0228404E0,-2.857009E-2,-1.1149875E0,-1.6485685E-2,-1.0785701E-1,-1.1161734E-1,-3.164136E-2],"categories":[],"categories_nodes":[],"categories_segments":[],"categories_sizes":[],"default_left":[0,0,0,0,0,0,0,0,0,0,0,0,0,0,0,0,0,0,0],"id":15,"left_children":[1,-1,3,5,7,-1,-1,9,11,13,-1,-1,15,-1,17,-1,-1,-1,-1],"loss_changes":[1.5322948E3,0E0,2.4125366E0,1.8794377E0,1.0640259E0,0E0,0E0,3.6950684E-1,1.1633916E1,2.9852295E-1,0E0,0E0,8.4573364E-1,0E0,2.2088623E-1,0E0,0E0,0E0,0E0],"parents":[2147483647,0,0,2,2,3,3,4,4,7,7,8,8,9,9,12,12,14,14],"right_children":[2,-1,4,6,8,-1,-1,10,12,14,-1,-1,16,-1,18,-1,-1,-1,-1],"split_conditions":[1E0,1.1197791E-1,1.19E2,9E0,3.81E-1,6.368109E-2,-6.6728875E-2,4.27E2,2E0,3E0,-2.3501342E-2,1.16406225E-1,1E1,-2.857009E-2,3E0,-1.6485685E-2,-1.0785701E-1,-1.1161734E-1,-3.164136E-2],"split_indices":[63,0,6,23,46,0,0,13,23,67,0,0,0,0,19,0,0,0,0],"split_type":[0,0,0,0,0,0,0,0,0,0,0,0,0,0,0,0,0,0,0],"sum_hessian":[1.2436794E3,6.1142834E2,6.3225116E2,2.4508264E0,6.298003E2,1.0766762E0,1.3741503E0,6.074876E2,2.2312698E1,6.064016E2,1.0859659E0,1.9064497E0,2.0406248E1,1.2431356E0,6.051585E2,1.486047E0,1.8920202E1,6.038641E2,1.2944335E0],"tree_param":{"num_deleted":"0","num_feature":"74","num_nodes":"19","size_leaf_vector":"1"}},{"base_weights":[2.1928288E-3,1.10675685E-1,-1.0871495E0,-5.18401E-1,-1.0951759E0,1.8467943E-1,-9.567603E-2,-2.0109365E-2,-1.0977808E0,-3.1449917E-1,9.686236E-2,-1.0990255E-1,-3.1525068E-2,2.82022E-2,-7.154905E-2],"categories":[],"categories_nodes":[],"categories_segments":[],"categories_sizes":[],"default_left":[0,0,0,0,0,0,0,0,0,0,0,0,0,0,0],"id":16,"left_children":[1,-1,3,5,7,9,-1,-1,11,13,-1,-1,-1,-1,-1],"loss_changes":[1.3632855E3,0E0,2.036255E0,3.20846E0,1.0872192E0,2.1109996E0,0E0,0E0,1.9873047E-1,1.0569496E0,0E0,0E0,0E0,0E0,0E0],"parents":[2147483647,0,0,2,2,3,3,4,4,5,5,8,8,9,9],"right_children":[2,-1,4,6,8,10,-1,-1,12,14,-1,-1,-1,-1,-1],"split_conditions":[1E0,1.10675685E-1,2E0,4.5E1,1.19E2,3.5019E0,-9.567603E-2,-2.0109365E-2,3E0,1.122E3,9.686236E-2,-1.0990255E-1,-3.1525068E-2,2.82022E-2,-7.154905E-2],"split_indices":[63,0,9,32,6,42,0,0,19,6,0,0,0,0,0],"split_type":[0,0,0,0,0,0,0,0,0,0,0,0,0,0,0],"sum_hessian":[1.1310045E3,5.6157074E2,5.694337E2,8.836952E0,5.6059674E2,3.6159942E0,5.2209587E0,1.8557482E0,5.58741E2,2.5751102E0,1.040884E0,5.574499E2,1.2910866E0,1.1544378E0,1.4206724E0],"tree_param":{"num_deleted":"0","num_feature":"74","num_nodes":"15","size_leaf_vector":"1"}},{"base_weights":[-2.8593903E-3,1.0952506E-1,-1.0671608E0,-1.083498E0,-6.351547E-1,-1.0863107E-1,-5.961705E-1,1.286848E-1,-9.5391876E-1,1.8371379E-2,-8.3409116E-2,-6.125705E-3,-1.0457455E-1],"categories":[],"categories_nodes":[],"categories_segments":[],"categories_sizes":[],"default_left":[0,0,0,0,0,0,0,0,0,0,0,0,0],"id":17,"left_children":[1,-1,3,5,7,-1,9,-1,11,-1,-1,-1,-1],"loss_changes":[1.2152594E3,0E0,3.0385132E0,4.7851562E-2,1.4496491E1,0E0,1.1047198E0,0E0,1.5057583E0,0E0,0E0,0E0,0E0],"parents":[2147483647,0,0,2,2,3,3,4,4,6,6,8,8],"right_children":[2,-1,4,6,8,-1,10,-1,12,-1,-1,-1,-1],"split_conditions":[1E0,1.0952506E-1,3.81E-1,1E0,2E0,-1.0863107E-1,5.47E2,1.286848E-1,1E1,1.8371379E-2,-8.3409116E-2,-6.125705E-3,-1.0457455E-1],"split_indices":[1,0,46,47,23,0,32,0,0,0,0,0,0],"split_type":[0,0,0,0,0,0,0,0,0,0,0,0,0],"sum_hessian":[1.0378207E3,5.1078308E2,5.2703766E2,5.063799E2,2.0657738E1,5.02252E2,4.1279063E0,2.5066688E0,1.815107E1,1.018192E0,3.1097143E0,1.8485109E0,1.6302559E1],"tree_param":{"num_deleted":"0","num_feature":"74","num_nodes":"13","size_leaf_vector":"1"}},{"base_weights":[5.2958014E-3,1.08499184E-1,-1.0533218E0,-1.0704114E0,-5.737459E-1,-1.0719678E0,-1.9120257E-2,1.21897995E-1,-9.1634256E-1,-5.8564067E-1,-1.0765212E-1,1.3774784E-2,-1.0213244E-1,4.211586E-3,-8.604055E-2],"categories":[],"categories_nodes":[],"categories_segments":[],"categories_sizes":[],"default_left":[0,0,0,0,0,0,0,0,0,0,0,0,0,0,0],"id":18,"left_children":[1,-1,3,5,7,9,-1,-1,11,13,-1,-1,-1,-1,-1],"loss_changes":[1.0969136E3,0E0,3.3572998E0,4.3371582E-1,1.2681318E1,4.008789E-1,0E0,0E0,1.9531612E0,1.1596107E0,0E0,0E0,0E0,0E0,0E0],"parents":[2147483647,0,0,2,2,3,3,4,4,5,5,8,8,9,9],"right_children":[2,-1,4,6,8,10,-1,-1,12,14,-1,-1,-1,-1,-1],"split_conditions":[1E0,1.08499184E-1,3.81E-1,1.097E3,2E0,2.09E2,-1.9120257E-2,1.21897995E-1,2E0,3.9199E0,-1.0765212E-1,1.3774784E-2,-1.0213244E-1,4.211586E-3,-8.604055E-2],"split_indices":[1,0,46,11,23,6,0,0,9,39,0,0,0,0,0],"split_type":[0,0,0,0,0,0,0,0,0,0,0,0,0,0,0],"sum_hessian":[9.576919E2,4.7411343E2,4.835785E2,4.657497E2,1.782881E1,4.647078E2,1.041908E0,2.450078E0,1.5378731E1,5.5128627E0,4.5919492E2,1.3646448E0,1.4014086E1,1.93612E0,3.5767424E0],"tree_param":{"num_deleted":"0","num_feature":"74","num_nodes":"15","size_leaf_vector":"1"}},{"base_weights":[-4.0542716E-3,1.0757952E-1,-1.0436951E0,-3.7332398E-1,-1.0548873E0,6.1880596E-2,-6.907755E-1,-6.507753E-3,-1.0591094E0,3.5244038E-3,-9.112973E-2,-2.0440796E-2,-1.0607817E0,-1.062436E-1,-2.167673E-2],"categories":[],"categories_nodes":[],"categories_segments":[],"categories_sizes":[],"default_left":[0,0,0,0,0,0,0,0,0,0,0,0,0,0,0],"id":19,"left_children":[1,-1,3,5,7,-1,9,-1,11,-1,-1,-1,13,-1,-1],"loss_changes":[9.785531E2,0E0,2.9381104E0,3.2117336E0,1.754242E0,0E0,1.1800349E0,0E0,4.0390015E-1,0E0,0E0,0E0,3.746338E-1,0E0,0E0],"parents":[2147483647,0,0,2,2,3,3,4,4,6,6,8,8,12,12],"right_children":[2,-1,4,6,8,-1,10,-1,12,-1,-1,-1,14,-1,-1],"split_conditions":[1E0,1.0757952E-1,2E0,2E0,1.19E2,6.1880596E-2,1E1,-6.507753E-3,3E0,3.5244038E-3,-9.112973E-2,-2.0440796E-2,1.097E3,-1.062436E-1,-2.167673E-2],"split_indices":[1,0,9,23,6,0,0,0,67,0,0,0,11,0,0],"split_type":[0,0,0,0,0,0,0,0,0,0,0,0,0,0,0],"sum_hessian":[8.696413E2,4.2655466E2,4.4308664E2,7.84029E0,4.3524637E2,1.6704252E0,6.169865E0,1.9184391E0,4.333279E2,1.6331744E0,4.5366907E0,1.0868162E0,4.3224112E2,4.3113733E2,1.1037697E0],"tree_param":{"num_deleted":"0","num_feature":"74","num_nodes":"15","size_leaf_vector":"1"}},{"base_weights":[2.0793793E-3,1.06758825E-1,-1.0306818E0,-3.2418865E-1,-1.0422485E0,3.1014618E-1,-8.1732675E-2,-3.301097E-1,-1.0504701E0,8.2761794E-2,-6.1644237E-2,-6.982466E-1,5.6260288E-2,-1.0523189E0,-2.1892209E-2,-7.951571E-2,-1.76049E-2,-2.2537202E-2,-1.054165E0,-1.0611556E-1,-6.882077E-2],"categories":[],"categories_nodes":[],"categories_segments":[],"categories_sizes":[],"default_left":[0,0,0,0,0,0,0,0,0,0,0,0,0,0,0,0,0,0,0,0,0],"id":20,"left_children":[1,-1,3,5,7,9,-1,11,13,-1,-1,15,-1,17,-1,-1,-1,-1,19,-1,-1],"loss_changes":[8.7280457E2,0E0,2.9534912E0,2.7370484E0,1.9707642E0,2.5227997E0,0E0,2.356782E0,3.7051392E-1,0E0,0E0,9.671712E-2,0E0,3.5739136E-1,0E0,0E0,0E0,0E0,2.6382446E-1,0E0,0E0],"parents":[2147483647,0,0,2,2,3,3,4,4,5,5,7,7,8,8,11,11,13,13,18,18],"right_children":[2,-1,4,6,8,10,-1,12,14,-1,-1,16,-1,18,-1,-1,-1,-1,20,-1,-1],"split_conditions":[1E0,1.06758825E-1,2E0,2.74E2,2.09E2,3.9316E0,-8.1732675E-2,1E0,5.1E1,8.2761794E-2,-6.1644237E-2,1E1,5.6260288E-2,3E0,-2.1892209E-2,-7.951571E-2,-1.76049E-2,-2.2537202E-2,5.254E-1,-1.0611556E-1,-6.882077E-2],"split_indices":[1,0,9,0,6,39,0,56,29,0,0,70,0,67,0,0,0,0,46,0,0],"split_type":[0,0,0,0,0,0,0,0,0,0,0,0,0,0,0,0,0,0,0,0,0],"sum_hessian":[7.911587E2,3.8938895E2,4.017697E2,6.939389E0,3.9483032E2,3.1974773E0,3.741912E0,4.9759736E0,3.8985437E2,2.1202137E0,1.0772636E0,3.6773462E0,1.2986273E0,3.8872464E2,1.1297288E0,2.6608307E0,1.0165155E0,1.140005E0,3.8758463E2,3.7845563E2,9.128997E0],"tree_param":{"num_deleted":"0","num_feature":"74","num_nodes":"21","size_leaf_vector":"1"}},{"base_weights":[5.8001294E-3,1.06019214E-1,-1.0241644E0,-1.041763E0,-5.662849E-1,-4.4455844E-1,-1.0486308E0,1.1315157E-1,-9.1383344E-1,-7.811024E-2,5.445565E-2,-1.0506997E-1,-1.745569E-2,-9.968707E-2,-1.6608687E-2],"categories":[],"categories_nodes":[],"categories_segments":[],"categories_sizes":[],"default_left":[0,0,0,0,0,0,0,0,0,0,0,0,0,0,0],"id":21,"left_children":[1,-1,3,5,7,9,11,-1,13,-1,-1,-1,-1,-1,-1],"loss_changes":[7.849758E2,0E0,2.3564758E0,9.7317505E-1,1.031253E1,2.3313255E0,4.4262695E-1,0E0,6.792259E-1,0E0,0E0,0E0,0E0,0E0,0E0],"parents":[2147483647,0,0,2,2,3,3,4,4,5,5,6,6,8,8],"right_children":[2,-1,4,6,8,10,12,-1,14,-1,-1,-1,-1,-1,-1],"split_conditions":[1E0,1.06019214E-1,3.81E-1,2.09E2,2E0,5.83E-2,4.27E2,1.1315157E-1,1.25E-1,-7.811024E-2,5.445565E-2,-1.0506997E-1,-1.745569E-2,-9.968707E-2,-1.6608687E-2],"split_indices":[63,0,46,6,23,46,13,0,48,0,0,0,0,0,0],"split_type":[0,0,0,0,0,0,0,0,0,0,0,0,0,0,0],"sum_hessian":[7.2082306E2,3.5617325E2,3.646498E2,3.4992535E2,1.4724477E1,4.725689E0,3.4519965E2,2.1187105E0,1.2605766E1,3.6828945E0,1.0427943E0,3.4418292E2,1.0167483E0,1.1045948E1,1.5598184E0],"tree_param":{"num_deleted":"0","num_feature":"74","num_nodes":"15","size_leaf_vector":"1"}},{"base_weights":[-1.8632425E-4,1.0536142E-1,-1.0239167E0,-1.0435313E0,-5.205169E-1,-2.278946E-2,-1.0457801E-1,1.11697845E-1,-8.424313E-1,3.051264E-3,-9.6886545E-2],"categories":[],"categories_nodes":[],"categories_segments":[],"categories_sizes":[],"default_left":[0,0,0,0,0,0,0,0,0,0,0],"id":22,"left_children":[1,-1,3,5,7,-1,-1,-1,9,-1,-1],"loss_changes":[7.0988696E2,0E0,2.752533E0,3.491211E-1,8.591185E0,0E0,0E0,0E0,1.4311028E0,0E0,0E0],"parents":[2147483647,0,0,2,2,3,3,4,4,8,8],"right_children":[2,-1,4,6,8,-1,-1,-1,10,-1,-1],"split_conditions":[1E0,1.0536142E-1,3.81E-1,3E0,2E0,-2.278946E-2,-1.0457801E-1,1.11697845E-1,2E0,3.051264E-3,-9.6886545E-2],"split_indices":[1,0,46,67,23,0,0,0,9,0,0],"split_type":[0,0,0,0,0,0,0,0,0,0,0],"sum_hessian":[6.560293E2,3.232526E2,3.327767E2,3.1926385E2,1.3512849E1,1.1592256E0,3.181046E2,1.8142794E0,1.1698569E1,1.576E0,1.0122569E1],"tree_param":{"num_deleted":"0","num_feature":"74","num_nodes":"11","size_leaf_vector":"1"}},{"base_weights":[5.115228E-3,1.0476489E-1,-1.0053651E0,-2.3880833E-1,-1.0195612E0,4.5020407E-1,-7.458878E-2,-1.0354995E0,-7.248107E-1,9.6288495E-2,-3.0871307E-2,-1.0380677E0,-1.7250882E-2,1.0032027E-1,-9.089676E-1,-1.04063E-1,-2.3628114E-2,-9.908473E-2,8.916776E-3],"categories":[],"categories_nodes":[],"categories_segments":[],"categories_sizes":[],"default_left":[0,0,0,0,0,0,0,0,0,0,0,0,0,0,0,0,0,0,0],"id":23,"left_children":[1,-1,3,5,7,9,-1,11,13,-1,-1,15,-1,-1,17,-1,-1,-1,-1],"loss_changes":[6.359952E2,0E0,3.0926514E0,2.739614E0,6.6207886E-1,1.6747696E0,0E0,4.4802856E-1,6.8813334E0,0E0,0E0,3.3325195E-1,0E0,0E0,1.5166616E0,0E0,0E0,0E0,0E0],"parents":[2147483647,0,0,2,2,3,3,4,4,5,5,7,7,8,8,11,11,14,14],"right_children":[2,-1,4,6,8,10,-1,12,14,-1,-1,16,-1,-1,18,-1,-1,-1,-1],"split_conditions":[1E0,1.0476489E-1,2E0,6.4E1,2.784E-1,4.5E1,-7.458878E-2,5.1E1,2E0,9.6288495E-2,-3.0871307E-2,2E0,-1.7250882E-2,1.0032027E-1,1E0,-1.04063E-1,-2.3628114E-2,-9.908473E-2,8.916776E-3],"split_indices":[1,0,9,0,46,32,0,29,23,0,0,19,0,0,36,0,0,0,0],"split_type":[0,0,0,0,0,0,0,0,0,0,0,0,0,0,0,0,0,0,0],"sum_hessian":[6.017205E2,2.961449E2,3.0557562E2,5.8801427E0,2.996955E2,2.5404196E0,3.3397233E0,2.8193692E2,1.7758568E1,1.3557745E0,1.1846449E0,2.808981E2,1.0388283E0,1.2819552E0,1.6476612E1,2.7970633E2,1.1917717E0,1.5234213E1,1.2423995E0],"tree_param":{"num_deleted":"0","num_feature":"74","num_nodes":"19","size_leaf_vector":"1"}},{"base_weights":[-1.9898666E-3,1.0421888E-1,-9.999172E-1,-1.0214422E0,-5.0117314E-1,-1.02407776E-1,-1.6160026E-2,1.0384967E-1,-8.6533993E-1,-1.3849574E-2,-9.570819E-2],"categories":[],"categories_nodes":[],"categories_segments":[],"categories_sizes":[],"default_left":[0,0,0,0,0,0,0,0,0,0,0],"id":24,"left_children":[1,-1,3,5,7,-1,-1,-1,9,-1,-1],"loss_changes":[5.723589E2,0E0,2.5032349E0,4.4250488E-1,8.514717E0,0E0,0E0,0E0,6.3632584E-1,0E0,0E0],"parents":[2147483647,0,0,2,2,3,3,4,4,8,8],"right_children":[2,-1,4,6,8,-1,-1,-1,10,-1,-1],"split_conditions":[1E0,1.0421888E-1,3.81E-1,3.63E2,2E0,-1.02407776E-1,-1.6160026E-2,1.0384967E-1,1E1,-1.3849574E-2,-9.570819E-2],"split_indices":[1,0,46,13,23,0,0,0,0,0,0],"split_type":[0,0,0,0,0,0,0,0,0,0,0],"sum_hessian":[5.4728107E2,2.6742123E2,2.7985983E2,2.6727664E2,1.2583219E1,2.662694E2,1.0072094E0,2.0527287E0,1.053049E1,1.461454E0,9.0690365E0],"tree_param":{"num_deleted":"0","num_feature":"74","num_nodes":"11","size_leaf_vector":"1"}},{"base_weights":[-8.4473833E-4,1.0312502E0,-9.9179703E-1,1.04123905E-1,-5.792093E-2,-2.416699E-1,-1.0077343E0,4.5100674E-1,-7.0708394E-2,-1.0105771E0,-1.606465E-2,-9.245853E-3,7.896516E-2,-7.1708775E-1,-1.0265181E0,6.7709796E-2,-9.0595096E-1,-1.0296005E-1,-2.6403433E-2,-5.243649E-2,8.7691836E-2,-9.569385E-2,-1.530615E-2],"categories":[],"categories_nodes":[],"categories_segments":[],"categories_sizes":[],"default_left":[0,0,0,0,0,0,0,0,0,0,0,0,0,0,0,0,0,0,0,0,0,0,0],"id":25,"left_children":[1,3,5,-1,-1,7,9,11,-1,13,-1,-1,-1,15,17,19,21,-1,-1,-1,-1,-1,-1],"loss_changes":[5.1233484E2,4.550293E0,2.8116913E0,0E0,0E0,2.4569912E0,4.3951416E-1,6.75913E-1,0E0,4.283905E-1,0E0,0E0,0E0,2.4536476E0,2.7755737E-1,2.405609E0,3.5560894E-1,0E0,0E0,0E0,0E0,0E0,0E0],"parents":[2147483647,0,0,1,1,2,2,5,5,6,6,7,7,9,9,13,13,14,14,15,15,16,16],"right_children":[2,4,6,-1,-1,8,10,12,-1,14,-1,-1,-1,16,18,20,22,-1,-1,-1,-1,-1,-1],"split_conditions":[1.19E2,7E0,2E0,1.04123905E-1,-5.792093E-2,3.8638E0,1.9E1,4.286E-1,-7.0708394E-2,5E0,-1.606465E-2,-9.245853E-3,7.896516E-2,2E0,1E0,2.24E-2,7.0661E0,-1.0296005E-1,-2.6403433E-2,-5.243649E-2,8.7691836E-2,-9.569385E-2,-1.530615E-2],"split_indices":[6,23,9,0,0,39,38,68,0,9,0,0,0,23,19,42,43,0,0,0,0,0,0],"split_type":[0,0,0,0,0,0,0,0,0,0,0,0,0,0,0,0,0,0,0,0,0,0,0],"sum_hessian":[4.9893512E2,2.4437422E2,2.545609E2,2.4321913E2,1.1550927E0,5.6321797E0,2.4892871E2,2.2759037E0,3.356276E0,2.4790376E2,1.0249497E0,1.1528146E0,1.1230892E0,1.5140307E1,2.3276346E2,3.0612304E0,1.2079077E1,2.3147736E2,1.2861063E0,1.9710629E0,1.0901676E0,1.1059105E1,1.0199716E0],"tree_param":{"num_deleted":"0","num_feature":"74","num_nodes":"23","size_leaf_vector":"1"}},{"base_weights":[2.4762854E-3,1.03271164E-1,-9.7947377E-1,-9.55424E-2,-9.977855E-1,6.769623E-2,-6.1850893E-1,-1.0059239E0,-7.435501E-2,-1.8494166E-2,-7.0293926E-2,-1.0090408E0,-1.659573E-2,4.4156153E-2,-5.3799193E-2,-7.4639034E-1,-1.0285133E-1,-8.457933E-2,2.9825151E-2],"categories":[],"categories_nodes":[],"categories_segments":[],"categories_sizes":[],"default_left":[0,0,0,0,0,0,0,0,0,0,0,0,0,0,0,0,0,0,0],"id":26,"left_children":[1,-1,3,5,7,-1,9,11,13,-1,-1,15,-1,-1,-1,17,-1,-1,-1],"loss_changes":[4.5998093E2,0E0,3.6728516E0,2.7743046E0,1.6384735E0,0E0,1.6404629E-2,4.239807E-1,9.722319E-1,0E0,0E0,3.824005E-1,0E0,0E0,0E0,2.2424889E0,0E0,0E0,0E0],"parents":[2147483647,0,0,2,2,3,3,4,4,6,6,7,7,8,8,11,11,15,15],"right_children":[2,-1,4,6,8,-1,10,12,14,-1,-1,16,-1,-1,-1,18,-1,-1,-1],"split_conditions":[1E0,1.03271164E-1,2E0,3.2E1,1E0,6.769623E-2,3.6384E0,2E0,1.1137E1,-1.8494166E-2,-7.0293926E-2,1.88E2,-1.659573E-2,4.4156153E-2,-5.3799193E-2,2.776E-1,-1.0285133E-1,-8.457933E-2,2.9825151E-2],"split_indices":[63,0,9,0,47,0,39,19,14,0,0,0,0,0,0,40,0,0,0],"split_type":[0,0,0,0,0,0,0,0,0,0,0,0,0,0,0,0,0,0,0],"sum_hessian":[4.5268863E2,2.2088763E2,2.3180101E2,4.8307714E0,2.2697025E2,1.8312534E0,2.9995182E0,2.2489882E2,2.0714118E0,1.0089282E0,1.99059E0,2.238668E2,1.0320233E0,1.0029656E0,1.0684463E0,1.8166206E1,2.0570059E2,1.6761604E1,1.4046013E0],"tree_param":{"num_deleted":"0","num_feature":"74","num_nodes":"19","size_leaf_vector":"1"}},{"base_weights":[3.0678282E-3,1.0230572E0,-9.7505707E-1,1.0338596E-1,-5.4700952E-2,-1.0042597E0,-3.6422879E-1,-1.853907E-2,-1.0113903E0,1.00753404E-1,-7.4666315E-1,-1.0149845E0,-1.5367836E-2,1.2892755E-2,-9.1121756E-2,-1.0185816E-1,-3.2990474E-2],"categories":[],"categories_nodes":[],"categories_segments":[],"categories_sizes":[],"default_left":[0,0,0,0,0,0,0,0,0,0,0,0,0,0,0,0,0],"id":27,"left_children":[1,3,5,-1,-1,7,9,-1,11,-1,13,15,-1,-1,-1,-1,-1],"loss_changes":[4.1662344E2,4.032593E0,3.4367523E0,0E0,0E0,9.971161E-1,6.6780148E0,0E0,4.6333313E-1,0E0,1.4729095E0,1.5655518E-1,0E0,0E0,0E0,0E0,0E0],"parents":[2147483647,0,0,1,1,2,2,5,5,6,6,8,8,10,10,11,11],"right_children":[2,4,6,-1,-1,8,10,-1,12,-1,14,16,-1,-1,-1,-1,-1],"split_conditions":[1.19E2,7E0,3.81E-1,1.0338596E-1,-5.4700952E-2,2.09E2,2E0,-1.853907E-2,1.9E1,1.00753404E-1,2E0,1E0,-1.5367836E-2,1.2892755E-2,-9.1121756E-2,-1.0185816E-1,-3.2990474E-2],"split_indices":[6,23,46,0,0,6,23,0,29,0,9,47,0,0,0,0,0],"split_type":[0,0,0,0,0,0,0,0,0,0,0,0,0,0,0,0,0],"sum_hessian":[4.1559366E2,2.034206E2,2.1217307E2,2.0236977E2,1.0508281E0,2.0187756E2,1.02955065E1,1.9758339E0,1.9990173E2,1.888189E0,8.407318E0,1.9888496E2,1.0167664E0,1.3643174E0,7.043E0,1.9736186E2,1.5230967E0],"tree_param":{"num_deleted":"0","num_feature":"74","num_nodes":"17","size_leaf_vector":"1"}},{"base_weights":[7.947406E-4,1.0210519E0,-9.6896964E-1,1.02778174E-1,-1.4423438E-3,-5.524931E-1,-1.0088962E0,-8.2417405E-1,4.5987758E-1,-1.0129786E0,-1.5492903E-2,-9.1238457E-1,2.2337588E-2,9.786343E-1,-5.845439E-2,-1.0170986E-1,-2.3869023E-2,-1.580747E-2,-9.5809154E-2,1.2649594E-1,1.7033335E-2],"categories":[],"categories_nodes":[],"categories_segments":[],"categories_sizes":[],"default_left":[0,0,0,0,0,0,0,0,0,0,0,0,0,0,0,0,0,0,0,0,0],"id":28,"left_children":[1,3,5,-1,-1,7,9,11,13,15,-1,17,-1,19,-1,-1,-1,-1,-1,-1,-1],"loss_changes":[3.7304117E2,1.2951813E0,2.6568909E0,0E0,0E0,5.638008E0,4.537506E-1,1.6299133E0,3.1117074E0,3.128357E-1,0E0,3.4610176E-1,0E0,5.9590745E-1,0E0,0E0,0E0,0E0,0E0,0E0,0E0],"parents":[2147483647,0,0,1,1,2,2,5,5,6,6,7,7,8,8,9,9,11,11,13,13],"right_children":[2,4,6,-1,-1,8,10,12,14,16,-1,18,-1,20,-1,-1,-1,-1,-1,-1,-1],"split_conditions":[1.19E2,1E1,1.88E2,1.02778174E-1,-1.4423438E-3,2.784E-1,2.79E2,3.59E2,3.9087E0,1E0,-1.5492903E-2,9.032E-1,2.2337588E-2,1.414E3,-5.845439E-2,-1.0170986E-1,-2.3869023E-2,-1.580747E-2,-9.5809154E-2,1.2649594E-1,1.7033335E-2],"split_indices":[6,0,0,0,0,46,13,65,39,19,0,5,0,6,0,0,0,0,0,0,0],"split_type":[0,0,0,0,0,0,0,0,0,0,0,0,0,0,0,0,0,0,0,0,0],"sum_hessian":[3.7503436E2,1.8273354E2,1.9230081E2,1.8156096E2,1.17258E0,1.8120691E1,1.7418011E2,1.4433262E1,3.6874294E0,1.7316612E2,1.013991E0,1.343129E1,1.0019722E0,2.5058036E0,1.1816257E0,1.7193765E2,1.2284737E0,1.0220857E0,1.2409204E1,1.4331698E0,1.0726339E0],"tree_param":{"num_deleted":"0","num_feature":"74","num_nodes":"21","size_leaf_vector":"1"}},{"base_weights":[-9.558375E-3,1.02127485E-1,-9.617756E-1,-9.884683E-1,-3.5427094E-1,-2.4775702E-1,-1.0006418E0,8.98757E-2,-7.5054663E-1,-7.1035855E-2,5.9250426E-2,-1.0048528E-1,-1.5888019E-2,-1.7673291E-2,-8.749759E-2],"categories":[],"categories_nodes":[],"categories_segments":[],"categories_sizes":[],"default_left":[0,0,0,0,0,0,0,0,0,0,0,0,0,0,0],"id":29,"left_children":[1,-1,3,5,7,9,11,-1,13,-1,-1,-1,-1,-1,-1],"loss_changes":[3.3893387E2,0E0,2.5603638E0,1.2973633E0,5.1995816E0,2.0146055E0,4.368286E-1,0E0,3.7859917E-1,0E0,0E0,0E0,0E0,0E0,0E0],"parents":[2147483647,0,0,2,2,3,3,4,4,5,5,6,6,8,8],"right_children":[2,-1,4,6,8,10,12,-1,14,-1,-1,-1,-1,-1,-1],"split_conditions":[1E0,1.02127485E-1,3.81E-1,2.09E2,2E0,1E1,3.22E2,8.98757E-2,1.057E3,-7.1035855E-2,5.9250426E-2,-1.0048528E-1,-1.5888019E-2,-1.7673291E-2,-8.749759E-2],"split_indices":[1,0,46,6,23,70,13,0,6,0,0,0,0,0,0],"split_type":[0,0,0,0,0,0,0,0,0,0,0,0,0,0,0],"sum_hessian":[3.4329453E2,1.6480765E2,1.7848686E2,1.7037384E2,8.113024E0,3.1000512E0,1.6727379E2,1.6446414E0,6.468382E0,2.099036E0,1.0010152E0,1.6624837E2,1.0254205E0,1.584002E0,4.88438E0],"tree_param":{"num_deleted":"0","num_feature":"74","num_nodes":"15","size_leaf_vector":"1"}},{"base_weights":[3.3159629E-3,1.0146568E0,-9.568462E-1,1.0216111E-1,1.6994842E-3,-9.8984E-1,-4.02967E-1,-1.0041088E-1,-3.6428747E-1,8.088043E-2,-6.575336E-1,-7.501099E-2,4.3568205E-2,4.6356483E-3,-8.3494174E-1,-8.903744E-2,-2.3729505E-2],"categories":[],"categories_nodes":[],"categories_segments":[],"categories_sizes":[],"default_left":[0,0,0,0,0,0,0,0,0,0,0,0,0,0,0,0,0],"id":30,"left_children":[1,3,5,-1,-1,7,9,-1,11,-1,13,-1,-1,-1,15,-1,-1],"loss_changes":[3.0514194E2,1.0444031E0,2.546997E0,0E0,0E0,9.8605347E-1,3.8476992E0,0E0,1.8536541E0,0E0,1.216867E0,0E0,0E0,0E0,4.0103436E-2,0E0,0E0],"parents":[2147483647,0,0,1,1,2,2,5,5,6,6,8,8,10,10,14,14],"right_children":[2,4,6,-1,-1,8,10,-1,12,-1,14,-1,-1,-1,16,-1,-1],"split_conditions":[1.19E2,1E1,3.214E-1,1.0216111E-1,1.6994842E-3,8.84E2,2E0,-1.0041088E-1,1.51523E1,8.088043E-2,1E1,-7.501099E-2,4.3568205E-2,4.6356483E-3,1.4E1,-8.903744E-2,-2.3729505E-2],"split_indices":[6,0,46,0,0,65,23,0,43,0,67,0,0,0,4,0,0],"split_type":[0,0,0,0,0,0,0,0,0,0,0,0,0,0,0,0,0],"sum_hessian":[3.1223895E2,1.520391E2,1.6019986E2,1.509628E2,1.0763015E0,1.5045064E2,9.749225E0,1.4650372E2,3.9469087E0,1.3145598E0,8.434665E0,2.704746E0,1.2421626E0,1.8466282E0,6.5880365E0,5.580625E0,1.0074115E0],"tree_param":{"num_deleted":"0","num_feature":"74","num_nodes":"17","size_leaf_vector":"1"}},{"base_weights":[3.398217E-3,1.0083933E0,-9.4766927E-1,1.0205149E-1,-3.1393286E-2,-9.7859555E-1,-3.499882E-1,-4.5338604E-3,-9.88944E-1,7.786986E-2,-6.597558E-1,-9.941067E-2,-1.48539385E-2,1.53672425E-2,-8.610148E-2],"categories":[],"categories_nodes":[],"categories_segments":[],"categories_sizes":[],"default_left":[0,0,0,0,0,0,0,0,0,0,0,0,0,0,0],"id":31,"left_children":[1,3,5,-1,-1,7,9,-1,11,-1,13,-1,-1,-1,-1],"loss_changes":[2.7295776E2,2.5459442E0,2.3695984E0,0E0,0E0,1.2970886E0,3.581902E0,0E0,4.4841003E-1,0E0,1.3481843E0,0E0,0E0,0E0,0E0],"parents":[2147483647,0,0,1,1,2,2,5,5,6,6,8,8,10,10],"right_children":[2,4,6,-1,-1,8,10,-1,12,-1,14,-1,-1,-1,-1],"split_conditions":[1.19E2,4E0,3.81E-1,1.0205149E-1,-3.1393286E-2,2.09E2,2E0,-4.5338604E-3,1.4E1,7.786986E-2,2E0,-9.941067E-2,-1.48539385E-2,1.53672425E-2,-8.610148E-2],"split_indices":[6,69,46,0,0,6,23,0,38,0,9,0,0,0,0],"split_type":[0,0,0,0,0,0,0,0,0,0,0,0,0,0,0],"sum_hessian":[2.8357526E2,1.3784932E2,1.4572594E2,1.3682332E2,1.025998E0,1.3795053E2,7.7754054E0,1.5719051E0,1.3637863E2,1.3484182E0,6.426987E0,1.3536418E2,1.0144492E0,1.3216635E0,5.105324E0],"tree_param":{"num_deleted":"0","num_feature":"74","num_nodes":"15","size_leaf_vector":"1"}},{"base_weights":[-4.906845E-3,1.012025E-1,-9.3759626E-1,-9.8455334E-1,-2.7451718E-1,-1.0018448E0,-2.2545464E-1,5.679194E-1,-8.0993734E-2,-1.0075315E-1,-1.757592E-2,6.1386276E-2,-6.962603E-2,9.652324E-2,-1.6985761E-2],"categories":[],"categories_nodes":[],"categories_segments":[],"categories_sizes":[],"default_left":[0,0,0,0,0,0,0,0,0,0,0,0,0,0,0],"id":32,"left_children":[1,-1,3,5,7,9,11,13,-1,-1,-1,-1,-1,-1,-1],"loss_changes":[2.4655312E2,0E0,3.9513474E0,1.4310532E0,5.129944E0,4.0135193E-1,2.0482504E0,1.5155759E0,0E0,0E0,0E0,0E0,0E0,0E0,0E0],"parents":[2147483647,0,0,2,2,3,3,4,4,5,5,6,6,7,7],"right_children":[2,-1,4,6,8,10,12,14,-1,-1,-1,-1,-1,-1,-1],"split_conditions":[1E0,1.012025E-1,3.214E-1,8.84E2,5E0,3.82714E1,1.073E3,9.0431E0,-8.0993734E-2,-1.0075315E-1,-1.757592E-2,6.1386276E-2,-6.962603E-2,9.652324E-2,-1.6985761E-2],"split_indices":[1,0,46,65,9,43,65,14,0,0,0,0,0,0,0],"split_type":[0,0,0,0,0,0,0,0,0,0,0,0,0,0,0],"sum_hessian":[2.5794467E2,1.233588E2,1.3458588E2,1.2523251E2,9.35337E0,1.2213072E2,3.1017842E0,3.611031E0,5.742339E0,1.2107758E2,1.0531452E0,1.0054632E0,2.096321E0,2.1466846E0,1.4643464E0],"tree_param":{"num_deleted":"0","num_feature":"74","num_nodes":"15","size_leaf_vector":"1"}},{"base_weights":[1.8891084E-3,9.9079895E-1,-9.368759E-1,1.0144416E-1,-1.3637884E-1,-3.9684367E-1,-9.858107E-1,-5.7407804E-2,4.13497E-2,5.2280736E-1,-7.079207E-1,-9.922099E-1,-1.4245314E-2,-2.2120537E-2,9.9416E-2,-9.0200715E-2,1.63876E-2,-4.0662933E-2,-9.987049E-2],"categories":[],"categories_nodes":[],"categories_segments":[],"categories_sizes":[],"default_left":[0,0,0,0,0,0,0,0,0,0,0,0,0,0,0,0,0,0,0],"id":33,"left_children":[1,3,5,-1,7,9,11,-1,-1,13,15,17,-1,-1,-1,-1,-1,-1,-1],"loss_changes":[2.1980003E2,3.2110748E0,2.818596E0,0E0,1.0196555E0,3.7360282E0,4.5606232E-1,0E0,0E0,1.4645395E0,1.7072892E0,1.1100769E-2,0E0,0E0,0E0,0E0,0E0,0E0,0E0],"parents":[2147483647,0,0,1,1,2,2,4,4,5,5,6,6,9,9,10,10,11,11],"right_children":[2,4,6,-1,8,10,12,-1,-1,14,16,18,-1,-1,-1,-1,-1,-1,-1],"split_conditions":[2.09E2,7.5E1,5E0,1.0144416E-1,8.3E-3,2E0,2.5E2,-5.7407804E-2,4.13497E-2,8.3E-3,7.22E-2,4E0,-1.4245314E-2,-2.2120537E-2,9.9416E-2,-9.0200715E-2,1.63876E-2,-4.0662933E-2,-9.987049E-2],"split_indices":[6,0,9,0,46,23,13,0,0,46,44,67,0,0,0,0,0,0,0],"split_type":[0,0,0,0,0,0,0,0,0,0,0,0,0,0,0,0,0,0,0],"sum_hessian":[2.3476329E2,1.14301186E2,1.204621E2,1.1205092E2,2.2502708E0,1.0765574E1,1.09696526E2,1.2284306E0,1.0218401E0,2.5490537E0,8.216521E0,1.0869527E2,1.0012535E0,1.1944149E0,1.3546388E0,6.692033E0,1.5244882E0,1.8901281E0,1.06805145E2],"tree_param":{"num_deleted":"0","num_feature":"74","num_nodes":"19","size_leaf_vector":"1"}},{"base_weights":[3.6624033E-4,1.0065327E-1,-9.0795994E-1,-2.346978E-1,-9.607849E-1,-6.632311E-1,9.999618E-2,-9.778039E-1,1.9231826E-2,-1.05696775E-1,-8.46626E-2,-9.9160767E-1,-3.6568668E-1,1.6274875E-2,-3.2451328E-2,-1.0062464E-1,-4.7590074E-1,-6.62491E-2,2.402742E-2,-7.350887E-2,2.0733248E-2],"categories":[],"categories_nodes":[],"categories_segments":[],"categories_sizes":[],"default_left":[0,0,0,0,0,0,0,0,0,0,0,0,0,0,0,0,0,0,0,0,0],"id":34,"left_children":[1,-1,3,5,7,9,-1,11,-1,13,-1,15,17,-1,-1,-1,19,-1,-1,-1,-1],"loss_changes":[1.960836E2,0E0,3.7847443E0,5.703713E0,2.2335358E0,6.9510245E-1,0E0,5.0666046E-1,0E0,2.3149936E-1,0E0,2.7625275E-1,8.5216516E-1,0E0,0E0,0E0,9.7732615E-1,0E0,0E0,0E0,0E0],"parents":[2147483647,0,0,2,2,3,3,4,4,5,5,7,7,9,9,11,11,12,12,16,16],"right_children":[2,-1,4,6,8,10,-1,12,-1,14,-1,16,18,-1,-1,-1,20,-1,-1,-1,-1],"split_conditions":[1E0,1.0065327E-1,7.5E1,3.61E-2,1E0,5E0,9.999618E-2,8.84E2,1.9231826E-2,4E-1,-8.46626E-2,1.5E0,5.03E-2,1.6274875E-2,-3.2451328E-2,-1.0062464E-1,9E0,-6.62491E-2,2.402742E-2,-7.350887E-2,2.0733248E-2],"split_indices":[1,0,0,44,47,32,0,65,0,68,0,5,40,0,0,0,67,0,0,0,0],"split_type":[0,0,0,0,0,0,0,0,0,0,0,0,0,0,0,0,0,0,0,0,0],"sum_hessian":[2.1255058E2,1.0079279E2,1.1175779E2,8.526699E0,1.03231094E2,6.6733084E0,1.8533905E0,1.01879456E2,1.351642E0,2.0419528E0,4.631356E0,9.902636E1,2.8530917E0,1.0320542E0,1.0098987E0,9.5368065E1,3.6582966E0,1.8524548E0,1.0006369E0,2.5971553E0,1.0611411E0],"tree_param":{"num_deleted":"0","num_feature":"74","num_nodes":"21","size_leaf_vector":"1"}},{"base_weights":[5.281523E-3,9.8468816E-1,-9.168595E-1,1.0135458E-1,-3.850461E-2,-1.886788E-1,-9.6548873E-1,6.548677E-1,-8.046577E-2,-9.7571397E-1,-7.2887912E-3,-3.7262402E-2,1.3028224E-1,-9.831153E-2,-1.4270726E-2],"categories":[],"categories_nodes":[],"categories_segments":[],"categories_sizes":[],"default_left":[0,0,0,0,0,0,0,0,0,0,0,0,0,0,0],"id":35,"left_children":[1,3,5,-1,-1,7,9,11,-1,13,-1,-1,-1,-1,-1],"loss_changes":[1.7959631E2,4.2019043E0,3.444786E0,0E0,0E0,4.504435E0,8.0298615E-1,3.003367E0,0E0,4.4296265E-1,0E0,0E0,0E0,0E0,0E0],"parents":[2147483647,0,0,1,1,2,2,5,5,6,6,7,7,9,9],"right_children":[2,4,6,-1,-1,8,10,12,-1,14,-1,-1,-1,-1,-1],"split_conditions":[2.09E2,1.12473E1,3.2E1,1.0135458E-1,-3.850461E-2,1.46E3,1E0,4.26E2,-8.046577E-2,2.14E2,-7.2887912E-3,-3.7262402E-2,1.3028224E-1,-9.831153E-2,-1.4270726E-2],"split_indices":[6,14,0,0,0,6,47,51,0,13,0,0,0,0,0],"split_type":[0,0,0,0,0,0,0,0,0,0,0,0,0,0,0],"sum_hessian":[1.9685562E2,9.543073E1,1.0142488E2,9.3716354E1,1.7143798E0,6.6548076E0,9.477007E1,2.7819538E0,3.8728538E0,9.360467E1,1.1654066E0,1.2402132E0,1.5417407E0,9.26017E1,1.0029695E0],"tree_param":{"num_deleted":"0","num_feature":"74","num_nodes":"15","size_leaf_vector":"1"}},{"base_weights":[-7.752345E-3,9.8998433E-1,-9.1799116E-1,1.0051384E-1,-4.6811975E-3,-9.522166E-1,-2.2553329E-1,-9.677839E-1,-1.9936685E-1,6.92912E-2,-5.755545E-1,-6.170453E-1,-9.928744E-2,2.4056874E-2,-5.2835453E-2,-7.455126E-2,-1.0806412E-3,-7.6196736E-1,2.287184E-2,-1.4609034E-2,-8.434302E-2],"categories":[],"categories_nodes":[],"categories_segments":[],"categories_sizes":[],"default_left":[0,0,0,0,0,0,0,0,0,0,0,0,0,0,0,0,0,0,0,0,0],"id":36,"left_children":[1,3,5,-1,-1,7,9,11,13,-1,15,17,-1,-1,-1,-1,-1,19,-1,-1,-1],"loss_changes":[1.6362326E2,1.3975677E0,2.01799E0,0E0,0E0,8.555374E-1,2.2464805E0,1.5641022E-1,5.7170635E-1,0E0,4.4381225E-1,1.2131839E0,0E0,0E0,0E0,0E0,0E0,2.5141E-1,0E0,0E0,0E0],"parents":[2147483647,0,0,1,1,2,2,5,5,6,6,7,7,8,8,10,10,11,11,17,17],"right_children":[2,4,6,-1,-1,8,10,12,14,-1,16,18,-1,-1,-1,-1,-1,20,-1,-1,-1],"split_conditions":[1.19E2,2E0,4.634E-1,1.0051384E-1,-4.6811975E-3,4.4E1,2E0,2E0,1.26836E1,6.92912E-2,6E-2,3.59E2,-9.928744E-2,2.4056874E-2,-5.2835453E-2,-7.455126E-2,-1.0806412E-3,7.11E2,2.287184E-2,-1.4609034E-2,-8.434302E-2],"split_indices":[6,1,46,0,0,35,23,23,14,0,44,65,0,0,0,0,0,6,0,0,0],"split_type":[0,0,0,0,0,0,0,0,0,0,0,0,0,0,0,0,0,0,0,0,0],"sum_hessian":[1.7816573E2,8.495581E1,9.320991E1,8.3762054E1,1.1937542E0,8.846243E1,4.7474766E0,8.639057E1,2.0718606E0,1.0397017E0,3.7077746E0,7.476047E0,7.891452E1,1.0014465E0,1.0704142E0,2.604026E0,1.1037486E0,6.467E0,1.0090468E0,1.081787E0,5.3852134E0],"tree_param":{"num_deleted":"0","num_feature":"74","num_nodes":"21","size_leaf_vector":"1"}},{"base_weights":[-2.4299752E-3,9.660925E-1,-9.119101E-1,1.0049237E-1,-4.824166E-2,-9.309071E-1,2.3260364E-2,-3.339435E-1,-9.717021E-1,-7.402302E-2,4.6683352E-2,-9.808463E-2,-1.377312E-2],"categories":[],"categories_nodes":[],"categories_segments":[],"categories_sizes":[],"default_left":[0,0,0,0,0,0,0,0,0,0,0,0,0],"id":37,"left_children":[1,3,5,-1,-1,7,-1,9,11,-1,-1,-1,-1],"loss_changes":[1.4496092E2,4.967636E0,2.061798E0,0E0,0E0,1.7134857E0,0E0,2.5828297E0,4.5825958E-1,0E0,0E0,0E0,0E0],"parents":[2147483647,0,0,1,1,2,2,5,5,7,7,8,8],"right_children":[2,4,6,-1,-1,8,-1,10,12,-1,-1,-1,-1],"split_conditions":[2E0,3.8638E0,1E0,1.0049237E-1,-4.824166E-2,7.5E1,2.3260364E-2,1.1547E0,1.9E1,-7.402302E-2,4.6683352E-2,-9.808463E-2,-1.377312E-2],"split_indices":[9,39,47,0,0,0,0,45,34,0,0,0,0],"split_type":[0,0,0,0,0,0,0,0,0,0,0,0,0],"sum_hessian":[1.6256882E2,7.869877E1,8.387004E1,7.694235E1,1.7564123E0,8.2684265E1,1.1857778E0,5.8765917E0,7.680767E1,3.9487445E0,1.9278471E0,7.580044E1,1.0072374E0],"tree_param":{"num_deleted":"0","num_feature":"74","num_nodes":"13","size_leaf_vector":"1"}},{"base_weights":[2.2402627E-3,9.677179E-1,-8.9544046E-1,1.0011522E0,-4.233621E-2,4.8933472E-2,-9.285862E-1,1.0091279E-1,2.5893955E-2,-6.0193475E-2,8.550032E-2,-9.654924E-1,-3.7124404E-1,-9.860242E-2,-1.950116E-1,4.4811364E-2,-7.903004E-2,2.3247255E-2,-5.221039E-2],"categories":[],"categories_nodes":[],"categories_segments":[],"categories_sizes":[],"default_left":[0,0,0,0,0,0,0,0,0,0,0,0,0,0,0,0,0,0,0],"id":38,"left_children":[1,3,5,7,-1,9,11,-1,-1,-1,-1,13,15,-1,17,-1,-1,-1,-1],"loss_changes":[1.3022386E2,3.7907944E0,2.4826775E0,1.5893555E-1,0E0,2.3981786E0,1.1898575E0,0E0,0E0,0E0,0E0,9.1464233E-1,2.51714E0,0E0,5.49631E-1,0E0,0E0,0E0,0E0],"parents":[2147483647,0,0,1,1,2,2,3,3,5,5,6,6,11,11,12,12,14,14],"right_children":[2,4,6,8,-1,10,12,-1,-1,-1,-1,14,16,-1,18,-1,-1,-1,-1],"split_conditions":[2E0,3.2E1,2.43E2,1.2281E0,-4.233621E-2,7.17E-2,2.784E-1,1.0091279E-1,2.5893955E-2,-6.0193475E-2,8.550032E-2,8.84E2,9E0,-9.860242E-2,9.2E1,4.4811364E-2,-7.903004E-2,2.3247255E-2,-5.221039E-2],"split_indices":[9,0,6,14,0,46,46,0,0,0,0,65,9,0,9,0,0,0,0],"split_type":[0,0,0,0,0,0,0,0,0,0,0,0,0,0,0,0,0,0,0],"sum_hessian":[1.4825433E2,7.139222E1,7.686211E1,6.9990326E1,1.4018949E0,2.590088E0,7.427202E1,6.889042E1,1.0999069E0,1.5731119E0,1.016976E0,6.8972466E1,5.299552E0,6.69097E1,2.0627625E0,1.7698067E0,3.5297453E0,1.0195566E0,1.0432059E0],"tree_param":{"num_deleted":"0","num_feature":"74","num_nodes":"19","size_leaf_vector":"1"}},{"base_weights":[-3.1102018E-4,9.717749E-1,-8.743652E-1,9.9712655E-2,-2.1518823E-2,-9.5031375E-1,-1.5192537E-1,-1.2586358E-3,-9.715508E-2,4.6530852E-1,-7.810516E-2,9.059937E-1,-4.228955E-2,1.3330181E-1,-5.921778E-3],"categories":[],"categories_nodes":[],"categories_segments":[],"categories_sizes":[],"default_left":[0,0,0,0,0,0,0,0,0,0,0,0,0,0,0],"id":39,"left_children":[1,3,5,-1,-1,7,9,-1,-1,11,-1,13,-1,-1,-1],"loss_changes":[1.16456635E2,2.1672897E0,3.8154945E0,0E0,0E0,1.2845039E0,3.4915962E0,0E0,0E0,2.220043E0,0E0,1.5029414E0,0E0,0E0,0E0],"parents":[2147483647,0,0,1,1,2,2,5,5,6,6,9,9,11,11],"right_children":[2,4,6,-1,-1,8,10,-1,-1,12,-1,14,-1,-1,-1],"split_conditions":[2.09E2,8E0,2.784E-1,9.9712655E-2,-2.1518823E-2,2E0,9E0,-1.2586358E-3,-9.715508E-2,1.488E3,-7.810516E-2,1.8E1,-4.228955E-2,1.3330181E-1,-5.921778E-3],"split_indices":[6,9,46,0,0,9,9,0,0,6,0,67,0,0,0],"split_type":[0,0,0,0,0,0,0,0,0,0,0,0,0,0,0],"sum_hessian":[1.3506328E2,6.389272E1,7.117056E1,6.27132E1,1.1795201E0,6.411488E1,7.0556817E0,1.4551486E0,6.2659737E1,3.692939E0,3.3627427E0,2.4549026E0,1.2380363E0,1.4377545E0,1.0171481E0],"tree_param":{"num_deleted":"0","num_feature":"74","num_nodes":"15","size_leaf_vector":"1"}},{"base_weights":[1.504576E-2,9.695875E-1,-8.4849393E-1,1.0059991E-1,-3.071492E-2,-1.4751546E-1,-9.3486774E-1,5.004364E-1,-5.978081E-1,-9.586078E-1,-1.53549705E-2,8.061027E-2,-1.6734635E-2,-7.892862E-2,1.0913567E-2,-1.4578201E-2,-9.711258E-1,-9.8375045E-2,-3.998236E-2],"categories":[],"categories_nodes":[],"categories_segments":[],"categories_sizes":[],"default_left":[0,0,0,0,0,0,0,0,0,0,0,0,0,0,0,0,0,0,0],"id":40,"left_children":[1,3,5,-1,-1,7,9,11,13,15,-1,-1,-1,-1,-1,-1,17,-1,-1],"loss_changes":[1.03874664E2,3.0911942E0,3.8685608E0,0E0,0E0,2.7635968E0,9.4208145E-1,9.529059E-1,8.223903E-1,4.3638992E-1,0E0,0E0,0E0,0E0,0E0,0E0,8.88443E-3,0E0,0E0],"parents":[2147483647,0,0,1,1,2,2,5,5,6,6,7,7,8,8,9,9,16,16],"right_children":[2,4,6,-1,-1,8,10,12,14,16,-1,-1,-1,-1,-1,-1,18,-1,-1],"split_conditions":[2.09E2,1.12473E1,5E0,1.0059991E-1,-3.071492E-2,4.5E1,8.84E2,1.488E3,5.86E-2,4E0,-1.53549705E-2,8.061027E-2,-1.6734635E-2,-7.892862E-2,1.0913567E-2,-1.4578201E-2,1.5E0,-9.8375045E-2,-3.998236E-2],"split_indices":[6,14,9,0,0,32,65,6,44,67,0,0,0,0,0,0,5,0,0],"split_type":[0,0,0,0,0,0,0,0,0,0,0,0,0,0,0,0,0,0,0],"sum_hessian":[1.2401989E2,5.8847775E1,6.517211E1,5.742219E1,1.4255816E0,7.4465466E0,5.7725567E1,3.0075102E0,4.439037E0,5.58031E1,1.9224637E0,1.9210494E0,1.0864608E0,3.4013054E0,1.0377313E0,1.0381658E0,5.476494E1,5.2874565E1,1.8903724E0],"tree_param":{"num_deleted":"0","num_feature":"74","num_nodes":"19","size_leaf_vector":"1"}},{"base_weights":[2.7845297E-3,9.661673E-1,-8.564144E-1,1.0057782E0,-5.3102918E-2,-9.370676E-1,-1.3191064E-1,1.01695314E-1,2.9013902E-2,-9.496276E-1,-1.316953E-2,4.6742716E-1,-7.5530656E-2,-2.8547425E-2,-9.6114404E-2,1.0520875E-1,-2.6857316E-2],"categories":[],"categories_nodes":[],"categories_segments":[],"categories_sizes":[],"default_left":[0,0,0,0,0,0,0,0,0,0,0,0,0,0,0,0,0],"id":41,"left_children":[1,3,5,7,-1,9,11,-1,-1,13,-1,15,-1,-1,-1,-1,-1],"loss_changes":[9.563846E1,3.7642975E0,3.4452324E0,1.3206863E-1,0E0,4.291954E-1,3.073702E0,0E0,0E0,1.3705063E-1,0E0,2.1459107E0,0E0,0E0,0E0,0E0,0E0],"parents":[2147483647,0,0,1,1,2,2,3,3,5,5,6,6,9,9,11,11],"right_children":[2,4,6,8,-1,10,12,-1,-1,14,-1,16,-1,-1,-1,-1,-1],"split_conditions":[2.09E2,3.9199E0,2.784E-1,2.4E1,-5.3102918E-2,3.6E1,9E0,1.01695314E-1,2.9013902E-2,2E0,-1.316953E-2,9.0431E0,-7.5530656E-2,-2.8547425E-2,-9.6114404E-2,1.0520875E-1,-2.6857316E-2],"split_indices":[6,39,46,67,0,22,9,0,0,9,0,14,0,0,0,0,0],"split_type":[0,0,0,0,0,0,0,0,0,0,0,0,0,0,0,0,0],"sum_hessian":[1.1354239E2,5.3467308E1,6.0075085E1,5.2408962E1,1.0583428E0,5.379331E1,6.281775E0,5.118859E1,1.2203729E0,5.279091E1,1.0024014E0,3.330244E0,2.9515312E0,1.3393439E0,5.1451565E1,1.6165953E0,1.7136489E0],"tree_param":{"num_deleted":"0","num_feature":"74","num_nodes":"17","size_leaf_vector":"1"}},{"base_weights":[-8.685162E-3,9.0246856E-1,-9.0405434E-1,9.817185E-1,-6.960707E-2,-9.298306E-1,1.6696125E-2,1.0122772E0,-2.5925416E-2,-9.565767E-1,-1.4058584E-2,2.465846E-2,1.02313E-1,-9.714689E-2,-2.7456472E-2],"categories":[],"categories_nodes":[],"categories_segments":[],"categories_sizes":[],"default_left":[0,0,0,0,0,0,0,0,0,0,0,0,0,0,0],"id":42,"left_children":[1,3,5,7,-1,9,-1,11,-1,13,-1,-1,-1,-1,-1],"loss_changes":[8.609309E1,7.310005E0,1.6245041E0,2.1681442E0,0E0,9.6578217E-1,0E0,1.5696335E-1,0E0,2.4354935E-1,0E0,0E0,0E0,0E0,0E0],"parents":[2147483647,0,0,1,1,2,2,3,3,5,5,7,7,9,9],"right_children":[2,4,6,8,-1,10,-1,12,-1,14,-1,-1,-1,-1,-1],"split_conditions":[3.2E1,1.857E3,9.999E-1,3.9087E0,-6.960707E-2,8.84E2,1.6696125E-2,4.2E1,-2.5925416E-2,5.5601E0,-1.4058584E-2,2.465846E-2,1.02313E-1,-9.714689E-2,-2.7456472E-2],"split_indices":[0,6,47,39,0,65,0,51,0,45,0,0,0,0,0],"split_type":[0,0,0,0,0,0,0,0,0,0,0,0,0,0,0],"sum_hessian":[1.0352956E2,5.1308556E1,5.2221004E1,4.9252647E1,2.0559065E0,5.112246E1,1.0985456E0,4.8248817E1,1.0038317E0,4.9241726E1,1.8807319E0,1.0058229E0,4.7242992E1,4.7774136E1,1.4675932E0],"tree_param":{"num_deleted":"0","num_feature":"74","num_nodes":"15","size_leaf_vector":"1"}},{"base_weights":[-2.960789E-3,9.6908474E-1,-8.1076247E-1,9.935615E-2,-2.9821384E-3,-1.7033626E-1,-9.115262E-1,-6.5018755E-1,3.6935416E-1,-9.344676E-1,-2.612315E-3,-1.4152995E-2,-7.4675106E-2,-2.0058887E-1,1.09963335E-1,-9.492599E-1,-3.2113153E-2,3.5949018E-2,-6.112435E-2,-9.651756E-1,-3.565223E-2,-3.9602052E-2,-9.821595E-2],"categories":[],"categories_nodes":[],"categories_segments":[],"categories_sizes":[],"default_left":[0,0,0,0,0,0,0,0,0,0,0,0,0,0,0,0,0,0,0,0,0,0,0],"id":43,"left_children":[1,3,5,-1,-1,7,9,11,13,15,-1,-1,-1,17,-1,19,-1,-1,-1,21,-1,-1,-1],"loss_changes":[7.6098206E1,1.1051025E0,3.260151E0,0E0,0E0,2.421996E0,8.9982986E-1,1.311605E-1,2.1364279E0,9.7286224E-2,0E0,0E0,0E0,1.0088722E0,0E0,5.936432E-2,0E0,0E0,0E0,7.991791E-3,0E0,0E0,0E0],"parents":[2147483647,0,0,1,1,2,2,5,5,6,6,7,7,8,8,9,9,13,13,15,15,19,19],"right_children":[2,4,6,-1,-1,8,10,12,14,16,-1,-1,-1,18,-1,20,-1,-1,-1,22,-1,-1,-1],"split_conditions":[1.19E2,1E1,6E0,9.935615E-2,-2.9821384E-3,8.3E-2,1E0,5.26E0,1E0,2.41683E1,-2.612315E-3,-1.4152995E-2,-7.4675106E-2,1E0,1.09963335E-1,5.106E-1,-3.2113153E-2,3.5949018E-2,-6.112435E-2,1E1,-3.565223E-2,-3.9602052E-2,-9.821595E-2],"split_indices":[6,0,9,0,0,46,41,50,60,43,0,0,0,24,0,41,0,0,0,0,0,0,0],"split_type":[0,0,0,0,0,0,0,0,0,0,0,0,0,0,0,0,0,0,0,0,0,0,0],"sum_hessian":[9.491263E1,4.298644E1,5.1926186E1,4.196353E1,1.0229064E0,7.4250555E0,4.450113E1,3.822045E0,3.6030107E0,4.3323177E1,1.1779513E0,1.0032092E0,2.8188357E0,2.4310412E0,1.1719694E0,4.176813E1,1.5550479E0,1.0811234E0,1.3499179E0,4.0064026E1,1.7041063E0,1.8655077E0,3.8198517E1],"tree_param":{"num_deleted":"0","num_feature":"74","num_nodes":"23","size_leaf_vector":"1"}},{"base_weights":[-9.481785E-3,9.6442556E-1,-8.061621E-1,9.911215E-2,-2.8807945E-3,-2.0191209E-1,-9.445665E-1,-5.98853E-1,1.5564966E-1,-9.814283E-2,-3.2974381E-3,-3.71746E-2,-8.491874E-2,3.4869604E-2,-5.5077374E-2],"categories":[],"categories_nodes":[],"categories_segments":[],"categories_sizes":[],"default_left":[0,0,0,0,0,0,0,0,0,0,0,0,0,0,0],"id":44,"left_children":[1,3,5,-1,-1,7,9,11,-1,-1,-1,13,-1,-1,-1],"loss_changes":[6.9194565E1,1.0926476E0,3.911131E0,0E0,0E0,8.19988E0,1.2994766E0,1.2644157E0,0E0,0E0,0E0,9.624467E-1,0E0,0E0,0E0],"parents":[2147483647,0,0,1,1,2,2,5,5,6,6,7,7,11,11],"right_children":[2,4,6,-1,-1,8,10,12,-1,-1,-1,14,-1,-1,-1],"split_conditions":[1.19E2,1E1,1.66E2,9.911215E-2,-2.8807945E-3,6.001E-1,1.5E0,5E0,1.5564966E-1,-9.814283E-2,-3.2974381E-3,3.838E0,-8.491874E-2,3.4869604E-2,-5.5077374E-2],"split_indices":[6,0,32,0,0,43,5,9,0,0,0,39,0,0,0],"split_type":[0,0,0,0,0,0,0,0,0,0,0,0,0,0,0],"sum_hessian":[8.717852E1,3.913145E1,4.804707E1,3.8109283E1,1.0221684E0,9.412508E0,3.863456E1,8.217039E0,1.195469E0,3.7059387E1,1.5751715E0,2.8872898E0,5.329749E0,1.8319823E0,1.0553075E0],"tree_param":{"num_deleted":"0","num_feature":"74","num_nodes":"15","size_leaf_vector":"1"}},{"base_weights":[-1.240322E-2,9.2428875E-1,-8.2444644E-1,9.800948E-2,-3.7311073E-2,-8.703739E-1,1.8089255E-2,-4.3539158E-1,-9.555221E-1,-8.251847E-2,2.3063198E-1,-9.76451E-2,-2.0721493E-2,8.487785E-2,-5.777334E-2],"categories":[],"categories_nodes":[],"categories_segments":[],"categories_sizes":[],"default_left":[0,0,0,0,0,0,0,0,0,0,0,0,0,0,0],"id":45,"left_children":[1,3,5,-1,-1,7,-1,9,11,-1,13,-1,-1,-1,-1],"loss_changes":[6.210482E1,3.1112518E0,2.176405E0,0E0,0E0,1.139122E0,0E0,2.4517226E0,3.3448792E-1,0E0,2.4878457E0,0E0,0E0,0E0,0E0],"parents":[2147483647,0,0,1,1,2,2,5,5,7,7,8,8,10,10],"right_children":[2,4,6,-1,-1,8,-1,10,12,-1,14,-1,-1,-1,-1],"split_conditions":[2E0,3.8638E0,8.84E2,9.800948E-2,-3.7311073E-2,9E0,1.8089255E-2,1.255E-1,5.5601E0,-8.251847E-2,9.0431E0,-9.76451E-2,-2.0721493E-2,8.487785E-2,-5.777334E-2],"split_indices":[9,39,65,0,0,9,0,46,45,0,14,0,0,0,0],"split_type":[0,0,0,0,0,0,0,0,0,0,0,0,0,0,0],"sum_hessian":[7.964689E1,3.692067E1,4.2726223E1,3.5632545E1,1.2881207E0,4.098799E1,1.7382311E0,7.7107444E0,3.327725E1,4.713296E0,2.9974487E0,3.207528E1,1.2019702E0,1.6702424E0,1.3272064E0],"tree_param":{"num_deleted":"0","num_feature":"74","num_nodes":"15","size_leaf_vector":"1"}},{"base_weights":[-2.3121951E-2,8.566694E-1,-8.884506E-1,9.7445387E-1,-5.784986E-2,-9.247216E-1,-5.5824835E-3,1.0152544E-1,-1.9066915E-2,-2.6906228E-1,-9.769458E-2,-6.329434E-2,3.6488436E-2],"categories":[],"categories_nodes":[],"categories_segments":[],"categories_sizes":[],"default_left":[0,0,0,0,0,0,0,0,0,0,0,0,0],"id":46,"left_children":[1,3,5,7,-1,9,-1,-1,-1,11,-1,-1,-1],"loss_changes":[5.682006E1,6.8218517E0,1.0843105E0,1.8377151E0,0E0,9.691124E-1,0E0,0E0,0E0,1.1616254E0,0E0,0E0,0E0],"parents":[2147483647,0,0,1,1,2,2,3,3,5,5,9,9],"right_children":[2,4,6,8,-1,10,-1,-1,-1,12,-1,-1,-1],"split_conditions":[7.5E1,1.12473E1,1.5E0,1.46E3,-5.784986E-2,2E0,-5.5824835E-3,1.0152544E-1,-1.9066915E-2,1E0,-9.769458E-2,-6.329434E-2,3.6488436E-2],"split_indices":[0,14,5,6,0,23,0,0,0,56,0,0,0],"split_type":[0,0,0,0,0,0,0,0,0,0,0,0,0],"sum_hessian":[7.263499E1,3.6021473E1,3.661351E1,3.3586075E1,2.435397E0,3.4979137E1,1.6343752E0,3.257402E1,1.0120544E0,3.03446E0,3.1944675E1,1.9288789E0,1.1055812E0],"tree_param":{"num_deleted":"0","num_feature":"74","num_nodes":"13","size_leaf_vector":"1"}},{"base_weights":[1.4171868E-2,9.446526E-1,-7.601515E-1,9.950699E-2,-5.001464E-4,-1.5721558E-1,-9.2091584E-1,-5.8114433E-1,1.5187131E-1,-9.687235E-2,-2.583099E-1,8.952379E-3,-7.7420935E-2,2.4945106E-2,-5.803437E-2],"categories":[],"categories_nodes":[],"categories_segments":[],"categories_sizes":[],"default_left":[0,0,0,0,0,0,0,0,0,0,0,0,0,0,0],"id":47,"left_children":[1,3,5,-1,-1,7,9,11,-1,-1,13,-1,-1,-1,-1],"loss_changes":[4.9817795E1,1.5083046E0,3.5142403E0,0E0,0E0,7.3850455E0,6.873226E-1,1.1087725E0,0E0,0E0,6.934175E-1,0E0,0E0,0E0,0E0],"parents":[2147483647,0,0,1,1,2,2,5,5,6,6,7,7,10,10],"right_children":[2,4,6,-1,-1,8,10,12,-1,-1,14,-1,-1,-1,-1],"split_conditions":[2.09E2,7.5E1,1.66E2,9.950699E-2,-5.001464E-4,6.001E-1,5.106E-1,1E1,1.5187131E-1,-9.687235E-2,3E0,8.952379E-3,-7.7420935E-2,2.4945106E-2,-5.803437E-2],"split_indices":[6,0,32,0,0,43,41,0,0,0,26,0,0,0,0],"split_type":[0,0,0,0,0,0,0,0,0,0,0,0,0,0,0],"sum_hessian":[6.714739E1,3.0398487E1,3.6748905E1,2.8820574E1,1.5779128E0,8.152273E0,2.8596632E1,7.0278163E0,1.1244565E0,2.6241304E1,2.3553264E0,1.6907614E0,5.3370547E0,1.0015458E0,1.3537806E0],"tree_param":{"num_deleted":"0","num_feature":"74","num_nodes":"15","size_leaf_vector":"1"}},{"base_weights":[-5.566846E-3,8.428179E-1,-8.390905E-1,9.507026E-1,-3.5265416E-1,-9.1170883E-1,-2.2318754E-1,9.811167E-2,2.5945583E-2,-5.8777858E-2,9.371234E-3,-9.585179E-2,1.0432295E-3,-7.321247E-2,8.195917E-2],"categories":[],"categories_nodes":[],"categories_segments":[],"categories_sizes":[],"default_left":[0,0,0,0,0,0,0,0,0,0,0,0,0,0,0],"id":48,"left_children":[1,3,5,7,9,11,13,-1,-1,-1,-1,-1,-1,-1,-1],"loss_changes":[4.4586693E1,4.365734E0,1.2188377E0,3.537445E-1,4.031189E-1,1.2239037E0,3.0828028E0,0E0,0E0,0E0,0E0,0E0,0E0,0E0,0E0],"parents":[2147483647,0,0,1,1,2,2,3,3,4,4,5,5,6,6],"right_children":[2,4,6,8,10,12,14,-1,-1,-1,-1,-1,-1,-1,-1],"split_conditions":[7.5E1,1.12473E1,1.2857E0,2E0,1.1154E0,2.41683E1,6.86E-2,9.811167E-2,2.5945583E-2,-5.8777858E-2,9.371234E-3,-9.585179E-2,1.0432295E-3,-7.321247E-2,8.195917E-2],"split_indices":[0,14,5,9,5,43,46,0,0,0,0,0,0,0,0],"split_type":[0,0,0,0,0,0,0,0,0,0,0,0,0,0,0],"sum_hessian":[6.1051292E1,3.02504E1,3.0800892E1,2.7934238E1,2.3161626E0,2.71227E1,3.6781933E0,2.6355291E1,1.5789461E0,1.3095484E0,1.0066143E0,2.5774885E1,1.347814E0,2.6720078E0,1.0061855E0],"tree_param":{"num_deleted":"0","num_feature":"74","num_nodes":"15","size_leaf_vector":"1"}},{"base_weights":[1.3335397E-2,9.268E-1,-7.220819E-1,9.854475E-2,-2.0534126E-2,-1.0116568E-1,-9.0441734E-1,-5.2953327E-1,1.4143857E-1,-9.315162E-1,-1.28379455E-2,-6.65473E-2,-7.883493E-2,-9.6101746E-2,-1.4903289E-2,2.8243527E-2,-4.095843E-2],"categories":[],"categories_nodes":[],"categories_segments":[],"categories_sizes":[],"default_left":[0,0,0,0,0,0,0,0,0,0,0,0,0,0,0,0,0],"id":49,"left_children":[1,3,5,-1,-1,7,9,11,-1,13,-1,15,-1,-1,-1,-1,-1],"loss_changes":[3.937197E1,1.9375553E0,3.5855942E0,0E0,0E0,6.26632E0,4.0573883E-1,8.286774E-1,0E0,4.1028023E-1,0E0,5.620806E-1,0E0,0E0,0E0,0E0,0E0],"parents":[2147483647,0,0,1,1,2,2,5,5,6,6,7,7,9,9,11,11],"right_children":[2,4,6,-1,-1,8,10,12,-1,14,-1,16,-1,-1,-1,-1,-1],"split_conditions":[2.09E2,1.12473E1,1.66E2,9.854475E-2,-2.0534126E-2,6.001E-1,2.3E1,5E0,1.4143857E-1,5.5601E0,-1.28379455E-2,1.2281E0,-7.883493E-2,-9.6101746E-2,-1.4903289E-2,2.8243527E-2,-4.095843E-2],"split_indices":[6,14,32,0,0,43,22,9,0,45,0,14,0,0,0,0,0],"split_type":[0,0,0,0,0,0,0,0,0,0,0,0,0,0,0,0,0],"sum_hessian":[5.661244E1,2.5133627E1,3.1478811E1,2.4018963E1,1.1146648E0,7.4985275E0,2.3980284E1,6.3533626E0,1.1451652E0,2.297757E1,1.0027133E0,2.7288857E0,3.624477E0,2.1922869E1,1.054702E0,1.4402922E0,1.2885934E0],"tree_param":{"num_deleted":"0","num_feature":"74","num_nodes":"17","size_leaf_vector":"1"}},{"base_weights":[1.55351E-2,9.256687E-1,-7.05019E-1,9.854283E-2,-1.8474765E-2,-5.797393E-2,-8.9695746E-1,-4.9161056E-1,1.3982646E-1,-9.56707E-2,-2.4596152E-1,1.1674657E-2,-6.824942E-1,-5.6897756E-2,2.4910387E-2,-1.7624248E-2,-7.6200165E-2],"categories":[],"categories_nodes":[],"categories_segments":[],"categories_sizes":[],"default_left":[0,0,0,0,0,0,0,0,0,0,0,0,0,0,0,0,0],"id":50,"left_children":[1,3,5,-1,-1,7,9,11,-1,-1,13,-1,15,-1,-1,-1,-1],"loss_changes":[3.5574123E1,1.772129E0,3.709567E0,0E0,0E0,5.7381325E0,6.7058563E-1,8.8128304E-1,0E0,0E0,6.70082E-1,0E0,8.307123E-2,0E0,0E0,0E0,0E0],"parents":[2147483647,0,0,1,1,2,2,5,5,6,6,7,7,10,10,12,12],"right_children":[2,4,6,-1,-1,8,10,12,-1,-1,14,-1,16,-1,-1,-1,-1],"split_conditions":[2.09E2,1.12473E1,1.66E2,9.854283E-2,-1.8474765E-2,6.001E-1,1.2E1,1E1,1.3982646E-1,-9.56707E-2,8.33E-2,1.1674657E-2,1.88E2,-5.6897756E-2,2.4910387E-2,-1.7624248E-2,-7.6200165E-2],"split_indices":[6,14,32,0,0,43,35,0,0,0,40,0,0,0,0,0,0],"split_type":[0,0,0,0,0,0,0,0,0,0,0,0,0,0,0,0,0],"sum_hessian":[5.2250202E1,2.296208E1,2.9288122E1,2.1896246E1,1.0658352E0,6.998265E0,2.2289858E1,5.9029145E0,1.0953505E0,1.998591E1,2.3039472E0,1.5025599E0,4.4003544E0,1.3038951E0,1.000052E0,1.0338904E0,3.3664641E0],"tree_param":{"num_deleted":"0","num_feature":"74","num_nodes":"17","size_leaf_vector":"1"}},{"base_weights":[-6.7625693E-3,9.180815E-1,-7.250049E-1,9.809393E-2,2.305638E-3,-5.953532E-2,-8.557805E-1,3.6612478E-1,-5.361407E-2,-9.154938E-1,1.729076E-2,-2.5199687E-2,8.621761E-2,-9.465665E-2,-1.3513888E-2],"categories":[],"categories_nodes":[],"categories_segments":[],"categories_sizes":[],"default_left":[0,0,0,0,0,0,0,0,0,0,0,0,0,0,0],"id":51,"left_children":[1,3,5,-1,-1,7,9,11,-1,13,-1,-1,-1,-1,-1],"loss_changes":[3.325115E1,1.208601E0,2.400649E0,0E0,0E0,1.3529682E0,1.5999088E0,1.3229162E0,0E0,4.1378593E-1,0E0,0E0,0E0,0E0,0E0],"parents":[2147483647,0,0,1,1,2,2,5,5,6,6,7,7,9,9],"right_children":[2,4,6,-1,-1,8,10,12,-1,14,-1,-1,-1,-1,-1],"split_conditions":[2.09E2,7.5E1,5E0,9.809393E-2,2.305638E-3,9.0431E0,8.84E2,2.24E-2,-5.361407E-2,1.5E0,1.729076E-2,-2.5199687E-2,8.621761E-2,-9.465665E-2,-1.3513888E-2],"split_indices":[6,0,9,0,0,14,65,42,0,5,0,0,0,0,0],"split_type":[0,0,0,0,0,0,0,0,0,0,0,0,0,0,0],"sum_hessian":[4.805523E1,2.0884756E1,2.7170473E1,1.9424576E1,1.4601805E0,4.7014985E0,2.2468973E1,2.6059294E0,2.0955694E0,2.1340252E1,1.1287216E0,1.3792554E0,1.226674E0,2.031821E1,1.0220406E0],"tree_param":{"num_deleted":"0","num_feature":"74","num_nodes":"15","size_leaf_vector":"1"}},{"base_weights":[-1.7188864E-2,8.969091E-1,-7.2033674E-1,9.754766E-2,-8.7855273E-4,-8.6992925E-1,1.1895861E-1,-9.560636E-2,-4.5799814E-2,5.964491E-1,-4.658819E-2,-5.481125E-2,5.2707788E-2,9.139568E-2,7.89073E-4],"categories":[],"categories_nodes":[],"categories_segments":[],"categories_sizes":[],"default_left":[0,0,0,0,0,0,0,0,0,0,0,0,0,0,0],"id":52,"left_children":[1,3,5,-1,-1,7,9,-1,11,13,-1,-1,-1,-1,-1],"loss_changes":[3.0275478E1,1.4664574E0,3.4444504E0,0E0,0E0,1.5679474E0,1.6476562E0,0E0,1.2093947E0,5.793673E-1,0E0,0E0,0E0,0E0,0E0],"parents":[2147483647,0,0,1,1,2,2,5,5,6,6,8,8,9,9],"right_children":[2,4,6,-1,-1,8,10,-1,12,14,-1,-1,-1,-1,-1],"split_conditions":[2.09E2,7.5E1,2.784E-1,9.754766E-2,-8.7855273E-4,4.75E2,1.488E3,-9.560636E-2,3.135E-1,1.7E1,-4.658819E-2,-5.481125E-2,5.2707788E-2,9.139568E-2,7.89073E-4],"split_indices":[6,0,46,0,0,65,6,0,41,67,0,0,0,0,0],"split_type":[0,0,0,0,0,0,0,0,0,0,0,0,0,0,0],"sum_hessian":[4.509815E1,1.948801E1,2.5610138E1,1.7861507E1,1.626503E0,2.1705023E1,3.9051137E0,1.9506231E1,2.198793E0,2.138938E0,1.7661757E0,1.1945834E0,1.0042095E0,1.0302684E0,1.1086695E0],"tree_param":{"num_deleted":"0","num_feature":"74","num_nodes":"15","size_leaf_vector":"1"}},{"base_weights":[-3.2927856E-2,9.42988E-2,-6.5606844E-1,-9.667308E-2,-8.4044933E-1,-5.5849963E-1,1.18529394E-1,-9.4683304E-2,-1.6757231E-2,-7.127374E-2,-8.306124E-3,6.05099E-2,-5.6215E-2],"categories":[],"categories_nodes":[],"categories_segments":[],"categories_sizes":[],"default_left":[0,0,0,0,0,0,0,0,0,0,0,0,0],"id":53,"left_children":[1,-1,3,5,7,9,-1,-1,11,-1,-1,-1,-1],"loss_changes":[2.626786E1,0E0,2.6345387E0,5.19546E0,1.7080574E0,4.0344536E-1,0E0,0E0,1.448615E0,0E0,0E0,0E0,0E0],"parents":[2147483647,0,0,2,2,3,3,4,4,5,5,8,8],"right_children":[2,-1,4,6,8,10,-1,-1,12,-1,-1,-1,-1],"split_conditions":[1E0,9.42988E-2,1.66E2,6.001E-1,1.2E1,1.25E-1,1.18529394E-1,-9.4683304E-2,2.221E3,-7.127374E-2,-8.306124E-3,6.05099E-2,-5.6215E-2],"split_indices":[1,0,32,43,35,48,0,0,6,0,0,0,0],"split_type":[0,0,0,0,0,0,0,0,0,0,0,0,0],"sum_hessian":[4.117696E1,1.5846337E1,2.5330624E1,6.6572948E0,1.867333E1,5.3090568E0,1.3482378E0,1.6405043E1,2.2682862E0,3.631757E0,1.6772999E0,1.0086972E0,1.2595891E0],"tree_param":{"num_deleted":"0","num_feature":"74","num_nodes":"13","size_leaf_vector":"1"}},{"base_weights":[-8.130373E-3,8.179704E-1,-7.749796E-1,9.479748E-1,-4.0950038E-2,4.7847215E-2,-8.7228584E-1,9.980684E-2,1.6919632E-2,-5.4175775E-2,6.545999E-2,-1.2183018E-2,-9.447915E-2],"categories":[],"categories_nodes":[],"categories_segments":[],"categories_sizes":[],"default_left":[0,0,0,0,0,0,0,0,0,0,0,0,0],"id":54,"left_children":[1,3,5,7,-1,9,11,-1,-1,-1,-1,-1,-1],"loss_changes":[2.5475916E1,3.4782896E0,1.7111101E0,5.259857E-1,0E0,1.4825768E0,9.0224075E-1,0E0,0E0,0E0,0E0,0E0,0E0],"parents":[2147483647,0,0,1,1,2,2,3,3,5,5,6,6],"right_children":[2,4,6,8,-1,10,12,-1,-1,-1,-1,-1,-1],"split_conditions":[7.5E1,1.46E3,4.69E2,2.1E1,-4.0950038E-2,8.24E-2,2E0,9.980684E-2,1.6919632E-2,-5.4175775E-2,6.545999E-2,-1.2183018E-2,-9.447915E-2],"split_indices":[0,6,6,67,0,46,23,0,0,0,0,0,0],"split_type":[0,0,0,0,0,0,0,0,0,0,0,0,0],"sum_hessian":[3.821423E1,1.8364311E1,1.9849916E1,1.6811468E1,1.5528433E0,2.1529276E0,1.769699E1,1.55308895E1,1.280579E0,1.1462203E0,1.0067073E0,1.7953056E0,1.5901683E1],"tree_param":{"num_deleted":"0","num_feature":"74","num_nodes":"13","size_leaf_vector":"1"}},{"base_weights":[-4.7610467E-3,7.5052685E-1,-7.7325815E-1,8.7192434E-1,-5.5708475E-2,-8.826611E-1,8.680307E-3,9.483799E-2,-1.6096642E-2,-9.235299E-2,-1.3776548E-2],"categories":[],"categories_nodes":[],"categories_segments":[],"categories_sizes":[],"default_left":[0,0,0,0,0,0,0,0,0,0,0],"id":55,"left_children":[1,3,5,7,-1,9,-1,-1,-1,-1,-1],"loss_changes":[2.1415224E1,3.4400015E0,1.7970686E0,1.5282774E0,0E0,3.693161E-1,0E0,0E0,0E0,0E0,0E0],"parents":[2147483647,0,0,1,1,2,2,3,3,5,5],"right_children":[2,4,6,8,-1,10,-1,-1,-1,-1,-1],"split_conditions":[1.88E2,3.9316E0,9.656E-1,9E0,-5.5708475E-2,6.64E2,8.680307E-3,9.483799E-2,-1.6096642E-2,-9.235299E-2,-1.3776548E-2],"split_indices":[0,39,47,9,0,65,0,0,0,0,0],"split_type":[0,0,0,0,0,0,0,0,0,0,0],"sum_hessian":[3.4895176E1,1.761063E1,1.7284548E1,1.6419455E1,1.1911739E0,1.5310695E1,1.9738529E0,1.5364016E1,1.0554403E0,1.42870245E1,1.0236706E0],"tree_param":{"num_deleted":"0","num_feature":"74","num_nodes":"11","size_leaf_vector":"1"}},{"base_weights":[-6.4846375E-3,8.2690144E-1,-7.0660144E-1,9.8050815E-1,-3.551854E-2,-8.750292E-1,-5.3374257E-2,1.0218767E-1,2.891545E-2,-9.298584E-2,-1.7638499E-2,-5.098891E-1,8.6976044E-2,-2.448319E-3,-6.677296E-2],"categories":[],"categories_nodes":[],"categories_segments":[],"categories_sizes":[],"default_left":[0,0,0,0,0,0,0,0,0,0,0,0,0,0,0],"id":56,"left_children":[1,3,5,7,-1,9,11,-1,-1,-1,-1,13,-1,-1,-1],"loss_changes":[2.0270784E1,3.2289581E0,2.0300188E0,1.1368656E-1,0E0,4.0833378E-1,2.522872E0,0E0,0E0,0E0,0E0,2.849033E-1,0E0,0E0,0E0],"parents":[2147483647,0,0,1,1,2,2,3,3,5,5,6,6,11,11],"right_children":[2,4,6,8,-1,10,12,-1,-1,-1,-1,14,-1,-1,-1],"split_conditions":[5.05E2,1.12473E1,1.213E-1,1.9E1,-3.551854E-2,3.81E-1,1.82E2,1.0218767E-1,2.891545E-2,-9.298584E-2,-1.7638499E-2,5E-3,8.6976044E-2,-2.448319E-3,-6.677296E-2],"split_indices":[6,14,40,67,0,46,65,0,0,0,0,25,0,0,0],"split_type":[0,0,0,0,0,0,0,0,0,0,0,0,0,0,0],"sum_hessian":[3.2740513E1,1.4864921E1,1.7875593E1,1.330635E1,1.558571E0,1.39414E1,3.9341927E0,1.2104001E1,1.2023485E0,1.262004E1,1.3213601E0,2.9319293E0,1.0022632E0,1.0028831E0,1.9290464E0],"tree_param":{"num_deleted":"0","num_feature":"74","num_nodes":"15","size_leaf_vector":"1"}},{"base_weights":[-1.5123744E-2,7.9253644E-1,-6.947761E-1,9.2060477E-1,-3.896604E-2,-8.333048E-1,1.8233065E-1,9.8774575E-2,7.0955963E-3,-2.5556058E-1,-9.263629E-2,8.982908E-2,-5.505058E-2,-6.1010987E-2,3.183795E-2],"categories":[],"categories_nodes":[],"categories_segments":[],"categories_sizes":[],"default_left":[0,0,0,0,0,0,0,0,0,0,0,0,0,0,0],"id":57,"left_children":[1,3,5,7,-1,9,11,-1,-1,13,-1,-1,-1,-1,-1],"loss_changes":[1.78392E1,2.6084604E0,2.2947626E0,7.116957E-1,0E0,5.917492E-1,2.1870985E0,0E0,0E0,9.1027325E-1,0E0,0E0,0E0,0E0,0E0],"parents":[2147483647,0,0,1,1,2,2,3,3,5,5,6,6,9,9],"right_children":[2,4,6,8,-1,10,12,-1,-1,14,-1,-1,-1,-1,-1],"split_conditions":[3.2E1,1.46E3,9.656E-1,1.7E1,-3.896604E-2,6E0,2.609E3,9.8774575E-2,7.0955963E-3,1.064E-1,-9.263629E-2,8.982908E-2,-5.505058E-2,-6.1010987E-2,3.183795E-2],"split_indices":[0,6,47,65,0,9,6,0,0,46,0,0,0,0,0],"split_type":[0,0,0,0,0,0,0,0,0,0,0,0,0,0,0],"sum_hessian":[3.0495132E1,1.3859363E1,1.6635769E1,1.2704365E1,1.154998E0,1.44098425E1,2.225926E0,1.1623332E1,1.0810329E0,2.5187309E0,1.1891111E1,1.011726E0,1.2141999E0,1.5179826E0,1.0007483E0],"tree_param":{"num_deleted":"0","num_feature":"74","num_nodes":"15","size_leaf_vector":"1"}},{"base_weights":[-5.206323E-4,7.429663E-1,-6.2805015E-1,8.7014157E-1,-2.8057888E-2,-8.2285E-1,3.0242202E-1,2.0686643E-2,9.616622E-2,-7.118714E-3,-9.224309E-2,1.0090734E-1,-5.599427E-2],"categories":[],"categories_nodes":[],"categories_segments":[],"categories_sizes":[],"default_left":[0,0,0,0,0,0,0,0,0,0,0,0,0],"id":58,"left_children":[1,3,5,7,-1,9,11,-1,-1,-1,-1,-1,-1],"loss_changes":[1.4246258E1,2.0634432E0,3.2501116E0,5.705147E-1,0E0,9.7929287E-1,2.757422E0,0E0,0E0,0E0,0E0,0E0,0E0],"parents":[2147483647,0,0,1,1,2,2,3,3,5,5,6,6],"right_children":[2,4,6,8,-1,10,12,-1,-1,-1,-1,-1,-1],"split_conditions":[2E0,2E0,1.4E1,3.04E2,-2.8057888E-2,1E1,1.857E3,2.0686643E-2,9.616622E-2,-7.118714E-3,-9.224309E-2,1.0090734E-1,-5.599427E-2],"split_indices":[23,70,70,51,0,0,6,0,0,0,0,0,0],"split_type":[0,0,0,0,0,0,0,0,0,0,0,0,0],"sum_hessian":[2.8534544E1,1.2976381E1,1.5558163E1,1.167557E1,1.3008122E0,1.2960475E1,2.5976872E0,1.8110108E0,9.864558E0,1.7167634E0,1.1243712E1,1.3342407E0,1.2634466E0],"tree_param":{"num_deleted":"0","num_feature":"74","num_nodes":"13","size_leaf_vector":"1"}},{"base_weights":[1.1404605E-2,8.7369597E-1,-5.7062614E-1,-1.1712669E-2,9.873174E-2,8.416579E-2,-8.57764E-1,-3.5422626E-1,1.14727676E-1,-9.1257825E-2,-1.305988E-2,4.372206E-2,-6.63704E-2,3.1311836E-2,-2.3744684E-2],"categories":[],"categories_nodes":[],"categories_segments":[],"categories_sizes":[],"default_left":[0,0,0,0,0,0,0,0,0,0,0,0,0,0,0],"id":59,"left_children":[1,3,5,-1,-1,7,9,11,-1,-1,-1,13,-1,-1,-1],"loss_changes":[1.4509252E1,1.4265957E0,3.319528E0,0E0,0E0,3.2846508E0,3.6294937E-1,6.6163373E-1,0E0,0E0,0E0,3.1562567E-1,0E0,0E0,0E0],"parents":[2147483647,0,0,1,1,2,2,5,5,6,6,7,7,11,11],"right_children":[2,4,6,-1,-1,8,10,12,-1,-1,-1,14,-1,-1,-1],"split_conditions":[2.09E2,3.7E1,1.66E2,-1.1712669E-2,9.873174E-2,6.001E-1,4.9204E0,5E0,1.14727676E-1,-9.1257825E-2,-1.305988E-2,2E0,-6.63704E-2,3.1311836E-2,-2.3744684E-2],"split_indices":[6,51,32,0,0,43,45,9,0,0,0,1,0,0,0],"split_type":[0,0,0,0,0,0,0,0,0,0,0,0,0,0,0],"sum_hessian":[2.6916424E1,1.06448E1,1.6271624E1,1.0919265E0,9.552875E0,5.175727E0,1.1095897E1,4.1366925E0,1.0390341E0,1.0081002E1,1.0148942E0,2.185345E0,1.9513477E0,1.0580064E0,1.1273384E0],"tree_param":{"num_deleted":"0","num_feature":"74","num_nodes":"15","size_leaf_vector":"1"}},{"base_weights":[-1.882487E-2,8.0861497E-1,-5.820309E-1,7.905811E-3,9.403674E-2,-7.623328E-1,1.7434638E-2,-1.1574004E-2,-8.786067E-2,8.140319E-2,-4.951843E-1,-1.2517459E-2,-5.9597142E-2],"categories":[],"categories_nodes":[],"categories_segments":[],"categories_sizes":[],"default_left":[0,0,0,0,0,0,0,0,0,0,0,0,0],"id":60,"left_children":[1,3,5,-1,-1,7,9,-1,-1,-1,11,-1,-1],"loss_changes":[1.2337566E1,9.571824E-1,1.7137809E0,0E0,0E0,8.093219E-1,2.2878354E0,0E0,0E0,0E0,5.3314805E-2,0E0,0E0],"parents":[2147483647,0,0,1,1,2,2,5,5,6,6,10,10],"right_children":[2,4,6,-1,-1,8,10,-1,-1,-1,12,-1,-1],"split_conditions":[2.09E2,1.09E2,7.5E-2,7.905811E-3,9.403674E-2,3.2E1,1.857E3,-1.1574004E-2,-8.786067E-2,8.140319E-2,8.727E-1,-1.2517459E-2,-5.9597142E-2],"split_indices":[6,51,44,0,0,0,6,0,0,0,47,0,0],"split_type":[0,0,0,0,0,0,0,0,0,0,0,0,0],"sum_hessian":[2.4464466E1,9.731541E0,1.4732926E1,1.7333664E0,7.998174E0,1.1117436E1,3.6154902E0,1.9986227E0,9.1188135E0,1.1854084E0,2.4300818E0,1.0001822E0,1.4298998E0],"tree_param":{"num_deleted":"0","num_feature":"74","num_nodes":"13","size_leaf_vector":"1"}},{"base_weights":[4.6627585E-2,7.5499123E-1,-5.5540544E-1,9.2114085E-1,-2.765486E-2,7.84986E-2,-7.6198506E-1,9.7436E-2,3.1682745E-2,-4.6013847E-1,8.62492E-2,-8.952635E-2,2.183487E-2,-1.3988169E-2,-5.431623E-2],"categories":[],"categories_nodes":[],"categories_segments":[],"categories_sizes":[],"default_left":[0,0,0,0,0,0,0,0,0,0,0,0,0,0,0],"id":61,"left_children":[1,3,5,7,-1,9,11,-1,-1,13,-1,-1,-1,-1,-1],"loss_changes":[1.0750906E1,2.2350078E0,1.850225E0,1.8766403E-2,0E0,2.1987991E0,1.5549989E0,0E0,0E0,8.6122155E-3,0E0,0E0,0E0,0E0,0E0],"parents":[2147483647,0,0,1,1,2,2,3,3,5,5,6,6,9,9],"right_children":[2,4,6,8,-1,10,12,-1,-1,14,-1,-1,-1,-1,-1],"split_conditions":[5.05E2,7E0,4E0,1.8E1,-2.765486E-2,1.1547E0,5.106E-1,9.7436E-2,3.1682745E-2,3.2E2,8.62492E-2,-8.952635E-2,2.183487E-2,-1.3988169E-2,-5.431623E-2],"split_indices":[6,9,24,67,0,45,41,0,0,0,0,0,0,0,0],"split_type":[0,0,0,0,0,0,0,0,0,0,0,0,0,0,0],"sum_hessian":[2.322647E1,1.0554166E1,1.2672304E1,9.182215E0,1.3719515E0,3.2670724E0,9.405232E0,7.876247E0,1.3059673E0,2.1814241E0,1.0856481E0,8.355994E0,1.0492376E0,1.0018228E0,1.1796014E0],"tree_param":{"num_deleted":"0","num_feature":"74","num_nodes":"15","size_leaf_vector":"1"}},{"base_weights":[-2.4401007E-2,6.4205176E-1,-6.2870556E-1,8.209811E-1,-3.9273303E-2,-8.025417E-1,3.0490244E-2,8.8244624E-2,1.6648509E-2,-6.295161E-3,-8.987004E-2],"categories":[],"categories_nodes":[],"categories_segments":[],"categories_sizes":[],"default_left":[0,0,0,0,0,0,0,0,0,0,0],"id":62,"left_children":[1,3,5,7,-1,9,-1,-1,-1,-1,-1],"loss_changes":[9.626692E0,2.4304137E0,2.2759113E0,2.565899E-1,0E0,7.133732E-1,0E0,0E0,0E0,0E0,0E0],"parents":[2147483647,0,0,1,1,2,2,3,3,5,5],"right_children":[2,4,6,8,-1,10,-1,-1,-1,-1,-1],"split_conditions":[7.5E1,1.12473E1,4.4742E0,1.9E1,-3.9273303E-2,2E0,3.0490244E-2,8.8244624E-2,1.6648509E-2,-6.295161E-3,-8.987004E-2],"split_indices":[0,14,45,67,0,23,0,0,0,0,0],"split_type":[0,0,0,0,0,0,0,0,0,0,0],"sum_hessian":[2.1900679E1,1.0385093E1,1.1515587E1,9.030249E0,1.3548447E0,9.826329E0,1.6892576E0,7.9366198E0,1.0936284E0,1.3209687E0,8.50536E0],"tree_param":{"num_deleted":"0","num_feature":"74","num_nodes":"11","size_leaf_vector":"1"}},{"base_weights":[-5.241093E-2,5.7438767E-1,-8.345774E-1,7.966454E-1,-5.0549787E-2,-8.943553E-2,-1.42912045E-2,9.576394E-2,-8.12626E-3],"categories":[],"categories_nodes":[],"categories_segments":[],"categories_sizes":[],"default_left":[0,0,0,0,0,0,0,0,0],"id":63,"left_children":[1,3,5,7,-1,-1,-1,-1,-1],"loss_changes":[1.1260925E1,3.4750056E0,2.9354095E-1,1.6330881E0,0E0,0E0,0E0,0E0,0E0],"parents":[2147483647,0,0,1,1,2,2,3,3],"right_children":[2,4,6,8,-1,-1,-1,-1,-1],"split_conditions":[9E0,1.488E3,2.01469E1,9.0431E0,-5.0549787E-2,-8.943553E-2,-1.42912045E-2,9.576394E-2,-8.12626E-3],"split_indices":[9,6,43,14,0,0,0,0,0],"split_type":[0,0,0,0,0,0,0,0,0],"sum_hessian":[2.0991467E1,1.1800577E1,9.19089E0,1.00039015E1,1.7966757E0,8.190014E0,1.0008768E0,8.376896E0,1.627005E0],"tree_param":{"num_deleted":"0","num_feature":"74","num_nodes":"9","size_leaf_vector":"1"}},{"base_weights":[-1.5069495E-2,6.874914E-1,-6.2486345E-1,8.577744E-1,-3.4256008E-2,-7.660361E-1,2.7487656E-2,9.372565E-2,1.3189589E-2,-8.912925E-2,1.2639816E-3],"categories":[],"categories_nodes":[],"categories_segments":[],"categories_sizes":[],"default_left":[0,0,0,0,0,0,0,0,0,0,0],"id":64,"left_children":[1,3,5,7,-1,9,-1,-1,-1,-1,-1],"loss_changes":[9.332535E0,2.071023E0,1.6901865E0,3.9448547E-1,0E0,1.0190907E0,0E0,0E0,0E0,0E0,0E0],"parents":[2147483647,0,0,1,1,2,2,3,3,5,5],"right_children":[2,4,6,8,-1,10,-1,-1,-1,-1,-1],"split_conditions":[7.5E1,1.46E3,5E-1,7E0,-3.4256008E-2,3.214E-1,2.7487656E-2,9.372565E-2,1.3189589E-2,-8.912925E-2,1.2639816E-3],"split_indices":[0,6,48,71,0,46,0,0,0,0,0],"split_type":[0,0,0,0,0,0,0,0,0,0,0],"sum_hessian":[1.978101E1,9.132166E0,1.0648844E1,7.9801745E0,1.1519918E0,9.333055E0,1.3157895E0,6.9301367E0,1.0500379E0,7.915204E0,1.4178507E0],"tree_param":{"num_deleted":"0","num_feature":"74","num_nodes":"11","size_leaf_vector":"1"}},{"base_weights":[-1.3270083E-1,5.539568E-1,-8.3031976E-1,7.785075E-1,-3.652307E-2,-8.9069195E-2,-1.4679437E-2,9.032897E-2,6.408279E-3],"categories":[],"categories_nodes":[],"categories_segments":[],"categories_sizes":[],"default_left":[0,0,0,0,0,0,0,0,0],"id":65,"left_children":[1,3,5,7,-1,-1,-1,-1,-1],"loss_changes":[9.6549015E0,2.4048E0,2.7868128E-1,7.0661926E-1,0E0,0E0,0E0,0E0,0E0],"parents":[2147483647,0,0,1,1,2,2,3,3],"right_children":[2,4,6,8,-1,-1,-1,-1,-1],"split_conditions":[6E0,9.0431E0,1.12921E1,5.34E2,-3.652307E-2,-8.9069195E-2,-1.4679437E-2,9.032897E-2,6.408279E-3],"split_indices":[9,14,42,6,0,0,0,0,0],"split_type":[0,0,0,0,0,0,0,0,0],"sum_hessian":[1.81951E1,9.27337E0,8.921731E0,7.575725E0,1.6976446E0,7.9191856E0,1.0025448E0,6.2242336E0,1.3514916E0],"tree_param":{"num_deleted":"0","num_feature":"74","num_nodes":"9","size_leaf_vector":"1"}},{"base_weights":[1.8598076E-2,7.9119664E-1,-4.6591935E-1,4.8085563E-3,9.114504E-2,-6.228704E-1,4.657531E-2,1.5742965E-2,-8.62107E-2,4.272105E-2,-5.188766E-2],"categories":[],"categories_nodes":[],"categories_segments":[],"categories_sizes":[],"default_left":[0,0,0,0,0,0,0,0,0,0,0],"id":66,"left_children":[1,3,5,-1,-1,7,-1,9,-1,-1,-1],"loss_changes":[6.9507155E0,5.94893E-1,1.9623129E0,0E0,0E0,1.5741887E0,0E0,1.0500796E0,0E0,0E0,0E0],"parents":[2147483647,0,0,1,1,2,2,5,5,7,7],"right_children":[2,4,6,-1,-1,8,-1,10,-1,-1,-1],"split_conditions":[2.09E2,9.3E1,1.50245E1,4.8085563E-3,9.114504E-2,1.88E2,4.657531E-2,6.23E0,-8.62107E-2,4.272105E-2,-5.188766E-2],"split_indices":[6,51,43,0,0,0,0,50,0,0,0],"split_type":[0,0,0,0,0,0,0,0,0,0,0],"sum_hessian":[1.6583284E1,6.147572E0,1.0435713E1,1.0512449E0,5.0963273E0,9.214819E0,1.2208939E0,2.7658658E0,6.4489527E0,1.676479E0,1.0893869E0],"tree_param":{"num_deleted":"0","num_feature":"74","num_nodes":"11","size_leaf_vector":"1"}},{"base_weights":[5.946687E-2,5.8302087E-1,-4.7836953E-1,-6.844395E-2,8.5318404E-1,-7.2605807E-1,6.2584706E-2,3.557044E-2,-5.3158164E-2,9.817046E-2,9.08796E-3,-1.4742103E-2,-8.4530056E-2],"categories":[],"categories_nodes":[],"categories_segments":[],"categories_sizes":[],"default_left":[0,0,0,0,0,0,0,0,0,0,0,0,0],"id":67,"left_children":[1,3,5,7,9,11,-1,-1,-1,-1,-1,-1,-1],"loss_changes":[5.1792502E0,1.6897767E0,2.9524405E0,9.046852E-1,5.599694E-1,4.220624E-1,0E0,0E0,0E0,0E0,0E0,0E0,0E0],"parents":[2147483647,0,0,1,1,2,2,3,3,4,4,5,5],"right_children":[2,4,6,8,10,12,-1,-1,-1,-1,-1,-1,-1],"split_conditions":[4E0,3.88E2,4.75E2,7E0,1.112E3,6E0,6.2584706E-2,3.557044E-2,-5.3158164E-2,9.817046E-2,9.08796E-3,-1.4742103E-2,-8.4530056E-2],"split_indices":[69,51,65,9,51,9,0,0,0,0,0,0,0],"split_type":[0,0,0,0,0,0,0,0,0,0,0,0,0],"sum_hessian":[1.6402655E1,8.269116E0,8.133539E0,2.6428556E0,5.6262603E0,6.92308E0,1.210459E0,1.5005752E0,1.1422805E0,4.568263E0,1.0579972E0,1.5650108E0,5.3580694E0],"tree_param":{"num_deleted":"0","num_feature":"74","num_nodes":"13","size_leaf_vector":"1"}},{"base_weights":[-1.5702678E-2,5.1562667E-1,-8.014133E-2,-2.7180576E-1,8.0811536E-1,1.5080198E-2,-5.6870926E-2,9.0338194E-1,1.4070778E-2,3.5748947E-1,1.1089069E-1,1.1849727E-2,4.531086E-2],"categories":[],"categories_nodes":[],"categories_segments":[],"categories_sizes":[],"default_left":[0,0,0,0,0,0,0,0,0,0,0,0,0],"id":68,"left_children":[1,3,-1,5,7,-1,-1,9,-1,11,-1,-1,-1],"loss_changes":[7.26562E0,2.615083E0,0E0,5.3310823E-1,3.710761E-1,0E0,0E0,3.5216093E-1,0E0,2.1736413E-2,0E0,0E0,0E0],"parents":[2147483647,0,0,1,1,3,3,4,4,7,7,9,9],"right_children":[2,4,-1,6,8,-1,-1,10,-1,12,-1,-1,-1],"split_conditions":[1.488E3,9.3E1,-8.014133E-2,2.09E2,1.057E3,1.5080198E-2,-5.6870926E-2,1.1304E0,1.4070778E-2,7.8E2,1.1089069E-1,1.1849727E-2,4.531086E-2],"split_indices":[6,51,0,6,6,0,0,5,0,51,0,0,0],"split_type":[0,0,0,0,0,0,0,0,0,0,0,0,0],"sum_hessian":[1.5414048E1,9.400676E0,6.0133724E0,2.565256E0,6.835419E0,1.2615994E0,1.3036567E0,5.6721945E0,1.1632249E0,2.300707E0,3.3714871E0,1.2973498E0,1.0033573E0],"tree_param":{"num_deleted":"0","num_feature":"74","num_nodes":"13","size_leaf_vector":"1"}},{"base_weights":[1.06830694E-1,6.2351495E-1,-4.1921586E-1,7.8013176E-1,-1.90749E-2,-6.309452E-1,5.8051087E-2,9.01105E-2,6.340872E-3,2.471274E-2,-8.4625915E-2],"categories":[],"categories_nodes":[],"categories_segments":[],"categories_sizes":[],"default_left":[0,0,0,0,0,0,0,0,0,0,0],"id":69,"left_children":[1,3,5,7,-1,9,-1,-1,-1,-1,-1],"loss_changes":[4.577976E0,1.2218344E0,2.1585805E0,5.717497E-1,0E0,1.6208022E0,0E0,0E0,0E0,0E0,0E0],"parents":[2147483647,0,0,1,1,2,2,3,3,5,5],"right_children":[2,4,6,8,-1,10,-1,-1,-1,-1,-1],"split_conditions":[4E0,9E0,1.3E1,1E1,-1.90749E-2,5E0,5.8051087E-2,9.01105E-2,6.340872E-3,2.471274E-2,-8.4625915E-2],"split_indices":[69,9,35,0,0,32,0,0,0,0,0],"split_type":[0,0,0,0,0,0,0,0,0,0,0],"sum_hessian":[1.4881491E1,7.414079E0,7.467412E0,6.253239E0,1.1608399E0,6.4667244E0,1.0006875E0,5.1300907E0,1.1231483E0,1.244356E0,5.2223682E0],"tree_param":{"num_deleted":"0","num_feature":"74","num_nodes":"11","size_leaf_vector":"1"}},{"base_weights":[4.335515E-2,4.9515983E-1,-7.935172E-2,1.6419904E-1,1.2523721E-1,6.671116E-1,-7.135773E-2,8.156677E-2,1.850223E-3],"categories":[],"categories_nodes":[],"categories_segments":[],"categories_sizes":[],"default_left":[0,0,0,0,0,0,0,0,0],"id":70,"left_children":[1,3,-1,5,-1,7,-1,-1,-1],"loss_changes":[6.071159E0,2.392743E0,0E0,4.1690574E0,0E0,5.4717636E-1,0E0,0E0,0E0],"parents":[2147483647,0,0,1,1,3,3,5,5],"right_children":[2,4,-1,6,-1,8,-1,-1,-1],"split_conditions":[1.857E3,8.419E-1,-7.935172E-2,1E0,1.2523721E-1,2E0,-7.135773E-2,8.156677E-2,1.850223E-3],"split_indices":[6,47,0,70,0,9,0,0,0],"split_type":[0,0,0,0,0,0,0,0,0],"sum_hessian":[1.40177145E1,9.368329E0,4.6493855E0,7.3657627E0,2.0025663E0,4.835381E0,2.5303814E0,3.7247157E0,1.1106653E0],"tree_param":{"num_deleted":"0","num_feature":"74","num_nodes":"9","size_leaf_vector":"1"}},{"base_weights":[3.9168827E-2,7.0819175E-1,-3.5842884E-1,8.4205665E-2,7.3262467E-3,-6.181853E-1,4.1509438E-1,-7.705938E-2,9.772324E-3,-1.5038296E-2,7.876961E-2],"categories":[],"categories_nodes":[],"categories_segments":[],"categories_sizes":[],"default_left":[0,0,0,0,0,0,0,0,0,0,0],"id":71,"left_children":[1,3,5,-1,-1,7,9,-1,-1,-1,-1],"loss_changes":[4.1133504E0,4.2656946E-1,2.2186117E0,0E0,0E0,9.167335E-1,7.617241E-1,0E0,0E0,0E0,0E0],"parents":[2147483647,0,0,1,1,2,2,5,5,6,6],"right_children":[2,4,6,-1,-1,8,10,-1,-1,-1,-1],"split_conditions":[2.09E2,7.5E1,1.213E-1,8.4205665E-2,7.3262467E-3,3.214E-1,7.7E1,-7.705938E-2,9.772324E-3,-1.5038296E-2,7.876961E-2],"split_indices":[6,0,40,0,0,46,71,0,0,0,0],"split_type":[0,0,0,0,0,0,0,0,0,0,0],"sum_hessian":[1.3509343E1,4.744601E0,8.764743E0,3.6490376E0,1.0955634E0,6.711706E0,2.0530362E0,5.4706774E0,1.2410291E0,1.0523459E0,1.0006903E0],"tree_param":{"num_deleted":"0","num_feature":"74","num_nodes":"11","size_leaf_vector":"1"}},{"base_weights":[4.5589432E-2,4.2518887E-1,-6.8776757E-1,7.8227735E-1,-1.1980083E-1,-7.677359E-2,-1.79319E-2,5.1764557E-3,9.737698E-2,3.3497766E-2,-4.6056055E-2],"categories":[],"categories_nodes":[],"categories_segments":[],"categories_sizes":[],"default_left":[0,0,0,0,0,0,0,0,0,0,0],"id":72,"left_children":[1,3,5,7,9,-1,-1,-1,-1,-1,-1],"loss_changes":[4.1682267E0,1.9993207E0,7.094169E-2,7.9571605E-1,8.8935363E-1,0E0,0E0,0E0,0E0,0E0,0E0],"parents":[2147483647,0,0,1,1,2,2,3,3,4,4],"right_children":[2,4,6,8,10,-1,-1,-1,-1,-1,-1],"split_conditions":[3.9199E0,1E0,1.142E-1,1.62E2,3.5E1,-7.677359E-2,-1.79319E-2,5.1764557E-3,9.737698E-2,3.3497766E-2,-4.6056055E-2],"split_indices":[39,57,44,51,32,0,0,0,0,0,0],"split_type":[0,0,0,0,0,0,0,0,0,0,0],"sum_hessian":[1.2922584E1,8.79193E0,4.1306534E0,5.0485907E0,3.7433395E0,3.1286275E0,1.002026E0,1.3123828E0,3.736208E0,1.6106849E0,2.1326547E0],"tree_param":{"num_deleted":"0","num_feature":"74","num_nodes":"11","size_leaf_vector":"1"}},{"base_weights":[-8.100223E-2,6.376167E-1,-4.7946507E-1,-4.9017216E-3,8.307325E-2,-7.118745E-1,2.2287572E-2,-8.3564535E-2,1.2363602E-3],"categories":[],"categories_nodes":[],"categories_segments":[],"categories_sizes":[],"default_left":[0,0,0,0,0,0,0,0,0],"id":73,"left_children":[1,3,5,-1,-1,7,-1,-1,-1],"loss_changes":[4.0417304E0,7.147515E-1,1.6218827E0,0E0,0E0,6.354599E-1,0E0,0E0,0E0],"parents":[2147483647,0,0,1,1,2,2,5,5],"right_children":[2,4,6,-1,-1,8,-1,-1,-1],"split_conditions":[2.43E2,9.3E1,2.784E-1,-4.9017216E-3,8.307325E-2,4.75E2,2.2287572E-2,-8.3564535E-2,1.2363602E-3],"split_indices":[6,51,46,0,0,65,0,0,0],"split_type":[0,0,0,0,0,0,0,0,0],"sum_hessian":[1.2047345E1,4.0831976E0,7.964148E0,1.0601068E0,3.0230908E0,5.9738016E0,1.9903464E0,4.9705224E0,1.0032791E0],"tree_param":{"num_deleted":"0","num_feature":"74","num_nodes":"9","size_leaf_vector":"1"}},{"base_weights":[5.034276E-2,3.9739645E-1,-6.190601E-1,-1.02296144E-1,8.380086E-1,-1.0000229E-2,-7.3212974E-2,-4.0790284E-1,5.662901E-2,9.870011E-2,1.4804172E-2,2.1282686E-2,-6.880476E-2],"categories":[],"categories_nodes":[],"categories_segments":[],"categories_sizes":[],"default_left":[0,0,0,0,0,0,0,0,0,0,0,0,0],"id":74,"left_children":[1,3,5,7,9,-1,-1,11,-1,-1,-1,-1,-1],"loss_changes":[3.1883633E0,2.0562222E0,2.03524E-1,1.2699763E0,3.539927E-1,0E0,0E0,8.543754E-1,0E0,0E0,0E0,0E0,0E0],"parents":[2147483647,0,0,1,1,2,2,3,3,4,4,7,7],"right_children":[2,4,6,8,10,-1,-1,12,-1,-1,-1,-1,-1],"split_conditions":[1.857E3,4.41E2,9.4E-3,2.122E1,1.057E3,-1.0000229E-2,-7.3212974E-2,1.56E2,5.662901E-2,9.870011E-2,1.4804172E-2,2.1282686E-2,-6.880476E-2],"split_indices":[6,51,25,50,6,0,0,6,0,0,0,0,0],"split_type":[0,0,0,0,0,0,0,0,0,0,0,0,0],"sum_hessian":[1.166515E1,7.9498634E0,3.715286E0,4.084976E0,3.8648872E0,1.0016303E0,2.7136557E0,3.0710983E0,1.0138779E0,2.8244631E0,1.0404242E0,1.0297441E0,2.0413542E0],"tree_param":{"num_deleted":"0","num_feature":"74","num_nodes":"13","size_leaf_vector":"1"}},{"base_weights":[-4.781371E-2,5.777666E-1,-5.12562E-1,-1.23349475E-2,8.2107954E-2,-7.374014E-1,3.8561743E-2,-8.1062175E-2,-1.791092E-2],"categories":[],"categories_nodes":[],"categories_segments":[],"categories_sizes":[],"default_left":[0,0,0,0,0,0,0,0,0],"id":75,"left_children":[1,3,5,-1,-1,7,-1,-1,-1],"loss_changes":[3.7450097E0,1.0440379E0,1.7658424E0,0E0,0E0,1.0869217E-1,0E0,0E0,0E0],"parents":[2147483647,0,0,1,1,2,2,5,5],"right_children":[2,4,6,-1,-1,8,-1,-1,-1],"split_conditions":[5.05E2,9.3E1,1E0,-1.23349475E-2,8.2107954E-2,3.478E-1,3.8561743E-2,-8.1062175E-2,-1.791092E-2],"split_indices":[6,51,66,0,0,46,0,0,0],"split_type":[0,0,0,0,0,0,0,0,0],"sum_hessian":[1.0862488E1,4.5264373E0,6.3360505E0,1.2931664E0,3.233271E0,5.210676E0,1.1253742E0,4.206964E0,1.0037123E0],"tree_param":{"num_deleted":"0","num_feature":"74","num_nodes":"9","size_leaf_vector":"1"}},{"base_weights":[-1.22628756E-1,3.4016746E-1,-7.522296E-2,6.782951E-1,-4.1377746E-2,8.017976E-2,2.153152E-2],"categories":[],"categories_nodes":[],"categories_segments":[],"categories_sizes":[],"default_left":[0,0,0,0,0,0,0],"id":76,"left_children":[1,3,-1,5,-1,-1,-1],"loss_changes":[3.6157236E0,2.1504235E0,0E0,1.385541E-1,0E0,0E0,0E0],"parents":[2147483647,0,0,1,1,3,3],"right_children":[2,4,-1,6,-1,-1,-1],"split_conditions":[1.12473E1,9E0,-7.522296E-2,1E0,-4.1377746E-2,8.017976E-2,2.153152E-2],"split_indices":[14,9,0,57,0,0,0],"split_type":[0,0,0,0,0,0,0],"sum_hessian":[1.0530907E1,6.3344197E0,4.1964874E0,4.4424276E0,1.891992E0,2.9292219E0,1.513206E0],"tree_param":{"num_deleted":"0","num_feature":"74","num_nodes":"7","size_leaf_vector":"1"}},{"base_weights":[1.5494445E-2,5.373229E-1,-4.405879E-1,8.853246E-1,-1.5003256E-2,1.1058802E-1,-7.6971956E-2,3.11029E-2,1.2282969E-1,-2.5312582E-2,4.7524646E-2],"categories":[],"categories_nodes":[],"categories_segments":[],"categories_sizes":[],"default_left":[0,0,0,0,0,0,0,0,0,0,0],"id":77,"left_children":[1,3,5,7,-1,9,-1,-1,-1,-1,-1],"loss_changes":[2.9006665E0,1.4892977E0,1.268326E0,3.8804412E-1,0E0,5.5969745E-1,0E0,0E0,0E0,0E0,0E0],"parents":[2147483647,0,0,1,1,2,2,3,3,5,5],"right_children":[2,4,6,8,-1,10,-1,-1,-1,-1,-1],"split_conditions":[1E0,1.5E1,6.6E-3,3.05E-2,-1.5003256E-2,4.118E-1,-7.6971956E-2,3.11029E-2,1.2282969E-1,-2.5312582E-2,4.7524646E-2],"split_indices":[57,67,25,44,0,68,0,0,0,0,0],"split_type":[0,0,0,0,0,0,0,0,0,0,0],"sum_hessian":[1.01931305E1,4.6708417E0,5.522289E0,2.909681E0,1.7611605E0,2.3129456E0,3.2093432E0,1.8009366E0,1.1087446E0,1.3110985E0,1.0018471E0],"tree_param":{"num_deleted":"0","num_feature":"74","num_nodes":"11","size_leaf_vector":"1"}},{"base_weights":[4.2954803E-2,3.3973578E-1,-5.3689545E-1,8.1083393E-1,-2.5627145E-3,-6.95352E-2,-1.6816041E-3,1.0883623E-2,1.1591132E-1,5.423237E-2,-5.970288E-2],"categories":[],"categories_nodes":[],"categories_segments":[],"categories_sizes":[],"default_left":[0,0,0,0,0,0,0,0,0,0,0],"id":78,"left_children":[1,3,5,7,9,-1,-1,-1,-1,-1,-1],"loss_changes":[2.1140153E0,1.2980859E0,3.3340538E-1,7.0152426E-1,2.1544425E0,0E0,0E0,0E0,0E0,0E0,0E0],"parents":[2147483647,0,0,1,1,2,2,3,3,4,4],"right_children":[2,4,6,8,10,-1,-1,-1,-1,-1,-1],"split_conditions":[3.9199E0,1E1,9.23E-2,3.15E-2,2E0,-6.95352E-2,-1.6816041E-3,1.0883623E-2,1.1591132E-1,5.423237E-2,-5.970288E-2],"split_indices":[39,67,40,46,1,0,0,0,0,0,0],"split_type":[0,0,0,0,0,0,0,0,0,0,0],"sum_hessian":[1.0224528E1,7.0369496E0,3.1875787E0,2.3853083E0,4.6516414E0,2.1848824E0,1.0026963E0,1.2262183E0,1.1590899E0,2.4727952E0,2.178846E0],"tree_param":{"num_deleted":"0","num_feature":"74","num_nodes":"11","size_leaf_vector":"1"}},{"base_weights":[3.8652917E-5,-4.885475E-1,5.4160756E-1,1.931916E-2,-7.976077E-2,8.950529E-2,-2.0257434E-2],"categories":[],"categories_nodes":[],"categories_segments":[],"categories_sizes":[],"default_left":[0,0,0,0,0,0,0],"id":79,"left_children":[1,3,5,-1,-1,-1,-1],"loss_changes":[3.152048E0,1.4736024E0,1.667371E0,0E0,0E0,0E0,0E0],"parents":[2147483647,0,0,1,1,2,2],"right_children":[2,4,6,-1,-1,-1,-1],"split_conditions":[4.26E2,2.43E2,1.488E3,1.931916E-2,-7.976077E-2,8.950529E-2,-2.0257434E-2],"split_indices":[51,6,6,0,0,0,0],"split_type":[0,0,0,0,0,0,0],"sum_hessian":[9.912372E0,5.262561E0,4.649811E0,1.758496E0,3.5040648E0,3.01508E0,1.6347306E0],"tree_param":{"num_deleted":"0","num_feature":"74","num_nodes":"7","size_leaf_vector":"1"}},{"base_weights":[3.226418E-2,3.8574043E-1,-7.031924E-2,1.0643856E-2,1.0380943E-1,5.2865405E-2,-4.445383E-1,4.5024594E-3,-6.479463E-2],"categories":[],"categories_nodes":[],"categories_segments":[],"categories_sizes":[],"default_left":[0,0,0,0,0,0,0,0,0],"id":80,"left_children":[1,3,-1,5,-1,-1,7,-1,-1],"loss_changes":[3.1235948E0,1.9602555E0,0E0,1.6793107E0,0E0,0E0,4.0794432E-1,0E0,0E0],"parents":[2147483647,0,0,1,1,3,3,6,6],"right_children":[2,4,-1,6,-1,-1,8,-1,-1],"split_conditions":[1.857E3,8.419E-1,-7.031924E-2,2E0,1.0380943E-1,5.2865405E-2,2.09E2,4.5024594E-3,-6.479463E-2],"split_indices":[6,47,0,1,0,0,6,0,0],"split_type":[0,0,0,0,0,0,0,0,0],"sum_hessian":[9.971973E0,7.0561466E0,2.9158268E0,5.1254077E0,1.930739E0,2.3217633E0,2.8036444E0,1.0515119E0,1.7521325E0],"tree_param":{"num_deleted":"0","num_feature":"74","num_nodes":"9","size_leaf_vector":"1"}},{"base_weights":[-5.2207835E-2,2.7795225E-1,-6.855642E-2,-1.2987056E-1,9.6824676E-2,5.09618E-2,-6.765783E-2],"categories":[],"categories_nodes":[],"categories_segments":[],"categories_sizes":[],"default_left":[0,0,0,0,0,0,0],"id":81,"left_children":[1,3,-1,5,-1,-1,-1],"loss_changes":[2.2948573E0,2.188271E0,0E0,2.263214E0,0E0,0E0,0E0],"parents":[2147483647,0,0,1,1,3,3],"right_children":[2,4,-1,6,-1,-1,-1],"split_conditions":[1.857E3,8.419E-1,-6.855642E-2,2E0,9.6824676E-2,5.09618E-2,-6.765783E-2],"split_indices":[6,47,0,1,0,0,0],"split_type":[0,0,0,0,0,0,0],"sum_hessian":[9.063188E0,6.326443E0,2.7367449E0,4.4872556E0,1.8391876E0,2.0994053E0,2.38785E0],"tree_param":{"num_deleted":"0","num_feature":"74","num_nodes":"7","size_leaf_vector":"1"}},{"base_weights":[8.191007E-2,-1.544014E-1,9.797364E-2,3.955675E-1,-6.3009596E-1,6.877136E-2,-4.2076176E-4,-7.525804E-2,-7.0332014E-3],"categories":[],"categories_nodes":[],"categories_segments":[],"categories_sizes":[],"default_left":[0,0,0,0,0,0,0,0,0],"id":82,"left_children":[1,3,-1,5,7,-1,-1,-1,-1],"loss_changes":[2.227047E0,2.5015092E0,0E0,5.409717E-1,2.9001057E-1,0E0,0E0,0E0,0E0],"parents":[2147483647,0,0,1,1,3,3,4,4],"right_children":[2,4,-1,6,8,-1,-1,-1,-1],"split_conditions":[1.50245E1,3.2E1,9.797364E-2,1.19E2,2.469E-1,6.877136E-2,-4.2076176E-4,-7.525804E-2,-7.0332014E-3],"split_indices":[43,0,0,6,46,0,0,0,0],"split_type":[0,0,0,0,0,0,0,0,0],"sum_hessian":[8.783697E0,7.609004E0,1.1746929E0,3.6071177E0,4.0018864E0,1.6679606E0,1.939157E0,3.0008063E0,1.0010804E0],"tree_param":{"num_deleted":"0","num_feature":"74","num_nodes":"9","size_leaf_vector":"1"}},{"base_weights":[7.772338E-2,-3.2957122E-1,5.039562E-1,-6.400327E-2,5.2378174E-2,8.407515E-1,-1.2042004E-2,1.00423984E-1,2.7091337E-2],"categories":[],"categories_nodes":[],"categories_segments":[],"categories_sizes":[],"default_left":[0,0,0,0,0,0,0,0,0],"id":83,"left_children":[1,3,5,-1,-1,7,-1,-1,-1],"loss_changes":[1.8218403E0,1.7875373E0,1.164422E0,0E0,0E0,4.557872E-2,0E0,0E0,0E0],"parents":[2147483647,0,0,1,1,2,2,5,5],"right_children":[2,4,6,-1,-1,8,-1,-1,-1],"split_conditions":[4.26E2,1.8E1,3.8145E0,-6.400327E-2,5.2378174E-2,1.097E3,-1.2042004E-2,1.00423984E-1,2.7091337E-2],"split_indices":[51,36,39,0,0,51,0,0,0],"split_type":[0,0,0,0,0,0,0,0,0],"sum_hessian":[8.537607E0,4.48176E0,4.055847E0,3.4694912E0,1.0122691E0,2.4095588E0,1.6462885E0,1.2799985E0,1.1295601E0],"tree_param":{"num_deleted":"0","num_feature":"74","num_nodes":"9","size_leaf_vector":"1"}},{"base_weights":[-4.8123997E-2,3.2578933E-1,-6.5924704E-2,-6.439245E-2,1.018628E-1,5.6790113E-2,-4.4450107E-1,-6.454024E-2,4.665802E-3],"categories":[],"categories_nodes":[],"categories_segments":[],"categories_sizes":[],"default_left":[0,0,0,0,0,0,0,0,0],"id":84,"left_children":[1,3,-1,5,-1,-1,7,-1,-1],"loss_changes":[2.301254E0,1.7779198E0,0E0,1.4523727E0,0E0,0E0,3.931473E-1,0E0,0E0],"parents":[2147483647,0,0,1,1,3,3,6,6],"right_children":[2,4,-1,6,-1,-1,8,-1,-1],"split_conditions":[1.26836E1,7.7056E0,-6.5924704E-2,1E0,1.018628E-1,5.6790113E-2,6.44E-2,-6.454024E-2,4.665802E-3],"split_indices":[14,43,0,63,0,0,46,0,0],"split_type":[0,0,0,0,0,0,0,0,0],"sum_hessian":[8.130916E0,5.3341417E0,2.7967741E0,3.9926724E0,1.3414693E0,1.3135657E0,2.6791067E0,1.6785014E0,1.0006053E0],"tree_param":{"num_deleted":"0","num_feature":"74","num_nodes":"9","size_leaf_vector":"1"}},{"base_weights":[1.06775485E-1,6.1937237E-1,-3.416687E-1,9.179658E-1,-1.1207559E-2,-5.9935298E-2,2.0789402E-2,2.1491913E-2,1.20850876E-1],"categories":[],"categories_nodes":[],"categories_segments":[],"categories_sizes":[],"default_left":[0,0,0,0,0,0,0,0,0],"id":85,"left_children":[1,3,5,7,-1,-1,-1,-1,-1],"loss_changes":[2.2543597E0,1.0861757E0,8.8709384E-1,4.1553903E-1,0E0,0E0,0E0,0E0,0E0],"parents":[2147483647,0,0,1,1,2,2,3,3],"right_children":[2,4,6,8,-1,-1,-1,-1,-1],"split_conditions":[1E0,1.5E1,7.5E-2,1E0,-1.1207559E-2,-5.9935298E-2,2.0789402E-2,2.1491913E-2,1.20850876E-1],"split_indices":[57,67,40,60,0,0,0,0,0],"split_type":[0,0,0,0,0,0,0,0,0],"sum_hessian":[7.8864584E0,3.5021482E0,4.3843102E0,2.3058503E0,1.196298E0,2.9230993E0,1.461211E0,1.182994E0,1.1228561E0],"tree_param":{"num_deleted":"0","num_feature":"74","num_nodes":"9","size_leaf_vector":"1"}},{"base_weights":[5.369739E-2,3.31524E-1,-5.2487332E-2,1.5251163E-3,1.0601731E-1,6.227682E-2,-4.055705E-1,6.187872E-3,-6.336318E-2],"categories":[],"categories_nodes":[],"categories_segments":[],"categories_sizes":[],"default_left":[0,0,0,0,0,0,0,0,0],"id":86,"left_children":[1,3,-1,5,-1,-1,7,-1,-1],"loss_changes":[1.5588062E0,1.545238E0,0E0,1.625654E0,0E0,0E0,4.5343208E-1,0E0,0E0],"parents":[2147483647,0,0,1,1,3,3,6,6],"right_children":[2,4,-1,6,-1,-1,8,-1,-1],"split_conditions":[1.73333E1,7.0177E0,-5.2487332E-2,1E0,1.0601731E-1,6.227682E-2,4E0,6.187872E-3,-6.336318E-2],"split_indices":[14,42,0,3,0,0,9,0,0],"split_type":[0,0,0,0,0,0,0,0,0],"sum_hessian":[7.6150165E0,5.4330764E0,2.1819403E0,4.4292154E0,1.0038607E0,1.5436954E0,2.8855202E0,1.1851121E0,1.7004081E0],"tree_param":{"num_deleted":"0","num_feature":"74","num_nodes":"9","size_leaf_vector":"1"}},{"base_weights":[1.5080373E-1,3.657368E-1,-5.919824E-2,5.4369356E-2,9.8142736E-2,4.7273725E-1,-4.5375526E-1,6.329497E-2,9.077677E-3,-5.5756416E-2,-1.1081715E-2],"categories":[],"categories_nodes":[],"categories_segments":[],"categories_sizes":[],"default_left":[0,0,0,0,0,0,0,0,0,0,0],"id":87,"left_children":[1,3,-1,5,-1,7,9,-1,-1,-1,-1],"loss_changes":[1.644711E0,1.3952348E0,0E0,1.5063874E0,0E0,1.764695E-1,5.406946E-2,0E0,0E0,0E0,0E0],"parents":[2147483647,0,0,1,1,3,3,5,5,6,6],"right_children":[2,4,-1,6,-1,8,10,-1,-1,-1,-1],"split_conditions":[3.9833E0,7.3761E0,-5.919824E-2,7.5E1,9.8142736E-2,3E0,6.44E-2,6.329497E-2,9.077677E-3,-5.5756416E-2,-1.1081715E-2],"split_indices":[39,42,0,0,0,3,46,0,0,0,0],"split_type":[0,0,0,0,0,0,0,0,0,0,0],"sum_hessian":[7.9458637E0,6.5563335E0,1.3895301E0,5.0770636E0,1.4792701E0,2.8226545E0,2.254409E0,